{"classes": [0, 1, 2], "dtrees": [{"children_left": [1, 2, 3, 4, 5, -1, -1, -1, -1, -1, 11, -1, 13, -1, -1], "children_right": [10, 9, 8, 7, 6, -1, -1, -1, -1, -1, 12, -1, 14, -1, -1], "threshold": [0.39701367914676666, 0.3381682485342026, 0.25179246068000793, 0.16924458742141724, 0.033061099238693714, -2.0, -2.0, -2.0, -2.0, -2.0, 0.41892924904823303, -2.0, 0.24770834296941757, -2.0, -2.0], "feature": [4, 8, 3, 5, 2, -2, -2, -2, -2, -2, 7, -2, 2, -2, -2], "classes": [0, 1, 2], "value": [[9.0, 6.0, 12.0], [8.0, 0.0, 12.0], [4.0, 0.0, 12.0], [4.0, 0.0, 4.0], [1.0, 0.0, 4.0], [1.0, 0.0, 0.0], [0.0, 0.0, 4.0], [3.0, 0.0, 0.0], [0.0, 0.0, 8.0], [4.0, 0.0, 0.0], [1.0, 6.0, 0.0], [0.0, 5.0, 0.0], [1.0, 1.0, 0.0], [0.0, 1.0, 0.0], [1.0, 0.0, 0.0]]}, {"children_left": [1, 2, 3, -1, -1, 6, -1, 8, 9, -1, -1, 12, -1, -1, -1], "children_right": [14, 5, 4, -1, -1, 7, -1, 11, 10, -1, -1, 13, -1, -1, -1], "threshold": [0.1417148932814598, 0.02170795574784279, 0.010848118690773845, -2.0, -2.0, 0.07497849315404892, -2.0, 10.206446647644043, 0.0505323801189661, -2.0, -2.0, 10.681277751922607, -2.0, -2.0, -2.0], "feature": [2, 2, 10, -2, -2, 8, -2, 0, 2, -2, -2, 0, -2, -2, -2], "classes": [0, 1, 2], "value": [[13.0, 5.0, 9.0], [13.0, 0.0, 9.0], [8.0, 0.0, 1.0], [0.0, 0.0, 1.0], [8.0, 0.0, 0.0], [5.0, 0.0, 8.0], [2.0, 0.0, 0.0], [3.0, 0.0, 8.0], [1.0, 0.0, 7.0], [0.0, 0.0, 7.0], [1.0, 0.0, 0.0], [2.0, 0.0, 1.0], [2.0, 0.0, 0.0], [0.0, 0.0, 1.0], [0.0, 5.0, 0.0]]}, {"children_left": [1, 2, -1, 4, -1, 6, -1, -1, 9, -1, -1], "children_right": [8, 3, -1, 5, -1, 7, -1, -1, 10, -1, -1], "threshold": [0.3146621137857437, 0.01806812174618244, -2.0, 0.059489766135811806, -2.0, 9.731171131134033, -2.0, -2.0, 1.4464401006698608, -2.0, -2.0], "feature": [8, 6, -2, 4, -2, 0, -2, -2, 9, -2, -2], "classes": [0, 1, 2], "value": [[10.0, 3.0, 14.0], [5.0, 0.0, 14.0], [2.0, 0.0, 0.0], [3.0, 0.0, 14.0], [1.0, 0.0, 0.0], [2.0, 0.0, 14.0], [2.0, 0.0, 0.0], [0.0, 0.0, 14.0], [5.0, 3.0, 0.0], [0.0, 3.0, 0.0], [5.0, 0.0, 0.0]]}, {"children_left": [1, 2, -1, 4, 5, 6, -1, -1, -1, 10, -1, -1, 13, -1, -1], "children_right": [12, 3, -1, 9, 8, 7, -1, -1, -1, 11, -1, -1, 14, -1, -1], "threshold": [0.9918632805347443, 0.02170795574784279, -2.0, 0.04279961995780468, 9.697514057159424, 0.030423467978835106, -2.0, -2.0, -2.0, 0.7950795590877533, -2.0, -2.0, 0.398126557469368, -2.0, -2.0], "feature": [5, 2, -2, 10, 0, 6, -2, -2, -2, 8, -2, -2, 7, -2, -2], "classes": [0, 1, 2], "value": [[12.0, 5.0, 10.0], [11.0, 1.0, 10.0], [5.0, 0.0, 0.0], [6.0, 1.0, 10.0], [1.0, 0.0, 10.0], [1.0, 0.0, 2.0], [0.0, 0.0, 2.0], [1.0, 0.0, 0.0], [0.0, 0.0, 8.0], [5.0, 1.0, 0.0], [5.0, 0.0, 0.0], [0.0, 1.0, 0.0], [1.0, 4.0, 0.0], [0.0, 4.0, 0.0], [1.0, 0.0, 0.0]]}, {"children_left": [1, 2, 3, -1, -1, 6, 7, -1, 9, -1, -1, 12, -1, -1, -1], "children_right": [14, 5, 4, -1, -1, 11, 8, -1, 10, -1, -1, 13, -1, -1, -1], "threshold": [11.210691928863525, 0.04078558646142483, 0.0485551655292511, -2.0, -2.0, 11.866642951965332, 0.8424579799175262, -2.0, 0.18605301342904568, -2.0, -2.0, 1.2290506958961487, -2.0, -2.0, -2.0], "feature": [0, 11, 4, -2, -2, 1, 9, -2, 6, -2, -2, 9, -2, -2, -2], "classes": [0, 1, 2], "value": [[11.0, 7.0, 9.0], [11.0, 0.0, 9.0], [1.0, 0.0, 5.0], [1.0, 0.0, 0.0], [0.0, 0.0, 5.0], [10.0, 0.0, 4.0], [9.0, 0.0, 1.0], [7.0, 0.0, 0.0], [2.0, 0.0, 1.0], [0.0, 0.0, 1.0], [2.0, 0.0, 0.0], [1.0, 0.0, 3.0], [0.0, 0.0, 3.0], [1.0, 0.0, 0.0], [0.0, 7.0, 0.0]]}, {"children_left": [1, 2, -1, -1, 5, -1, 7, -1, -1], "children_right": [4, 3, -1, -1, 6, -1, 8, -1, -1], "threshold": [0.04279961995780468, 0.01671128859743476, -2.0, -2.0, 0.8003402650356293, -2.0, 0.10531938821077347, -2.0, -2.0], "feature": [10, 2, -2, -2, 8, -2, 6, -2, -2], "classes": [0, 1, 2], "value": [[8.0, 5.0, 14.0], [1.0, 0.0, 14.0], [1.0, 0.0, 0.0], [0.0, 0.0, 14.0], [7.0, 5.0, 0.0], [6.0, 0.0, 0.0], [1.0, 5.0, 0.0], [1.0, 0.0, 0.0], [0.0, 5.0, 0.0]]}, {"children_left": [1, 2, -1, 4, 5, 6, -1, -1, -1, -1, 11, -1, -1], "children_right": [10, 3, -1, 9, 8, 7, -1, -1, -1, -1, 12, -1, -1], "threshold": [0.3146621137857437, 0.02170795574784279, -2.0, 1.539889395236969, 0.1129673421382904, 0.2286350354552269, -2.0, -2.0, -2.0, -2.0, 9.843636989593506, -2.0, -2.0], "feature": [8, 6, -2, 3, 4, 5, -2, -2, -2, -2, 0, -2, -2], "classes": [0, 1, 2], "value": [[12.0, 10.0, 5.0], [5.0, 0.0, 5.0], [3.0, 0.0, 0.0], [2.0, 0.0, 5.0], [1.0, 0.0, 5.0], [1.0, 0.0, 1.0], [0.0, 0.0, 1.0], [1.0, 0.0, 0.0], [0.0, 0.0, 4.0], [1.0, 0.0, 0.0], [7.0, 10.0, 0.0], [7.0, 0.0, 0.0], [0.0, 10.0, 0.0]]}, {"children_left": [1, 2, -1, 4, -1, 6, 7, 8, 9, -1, -1, -1, -1, -1, 15, -1, -1], "children_right": [14, 3, -1, 5, -1, 13, 12, 11, 10, -1, -1, -1, -1, -1, 16, -1, -1], "threshold": [0.39701367914676666, 0.12249691784381866, -2.0, 0.11547898128628731, -2.0, 0.30834077298641205, 0.3902639001607895, 0.13584755174815655, 0.05029330030083656, -2.0, -2.0, -2.0, -2.0, -2.0, 0.398126557469368, -2.0, -2.0], "feature": [4, 3, -2, 4, -2, 4, 7, 11, 2, -2, -2, -2, -2, -2, 7, -2, -2], "classes": [0, 1, 2], "value": [[10.0, 8.0, 9.0], [9.0, 0.0, 9.0], [0.0, 0.0, 4.0], [9.0, 0.0, 5.0], [4.0, 0.0, 0.0], [5.0, 0.0, 5.0], [2.0, 0.0, 5.0], [1.0, 0.0, 5.0], [1.0, 0.0, 1.0], [1.0, 0.0, 0.0], [0.0, 0.0, 1.0], [0.0, 0.0, 4.0], [1.0, 0.0, 0.0], [3.0, 0.0, 0.0], [1.0, 8.0, 0.0], [0.0, 8.0, 0.0], [1.0, 0.0, 0.0]]}, {"children_left": [1, 2, -1, 4, -1, 6, -1, -1, -1], "children_right": [8, 3, -1, 5, -1, 7, -1, -1, -1], "threshold": [0.41999058425426483, 0.20296764373779297, -2.0, 0.014299506787210703, -2.0, 14.677642822265625, -2.0, -2.0, -2.0], "feature": [4, 5, -2, 10, -2, 1, -2, -2, -2], "classes": [0, 1, 2], "value": [[13.0, 6.0, 8.0], [13.0, 0.0, 8.0], [0.0, 0.0, 6.0], [13.0, 0.0, 2.0], [0.0, 0.0, 1.0], [13.0, 0.0, 1.0], [13.0, 0.0, 0.0], [0.0, 0.0, 1.0], [0.0, 6.0, 0.0]]}, {"children_left": [1, 2, -1, 4, -1, 6, -1, -1, -1], "children_right": [8, 3, -1, 5, -1, 7, -1, -1, -1], "threshold": [0.39701367914676666, 0.03987439535558224, -2.0, 0.010848118690773845, -2.0, 2.0524256825447083, -2.0, -2.0, -2.0], "feature": [4, 11, -2, 10, -2, 3, -2, -2, -2], "classes": [0, 1, 2], "value": [[13.0, 10.0, 4.0], [13.0, 0.0, 4.0], [0.0, 0.0, 2.0], [13.0, 0.0, 2.0], [0.0, 0.0, 1.0], [13.0, 0.0, 1.0], [13.0, 0.0, 0.0], [0.0, 0.0, 1.0], [0.0, 10.0, 0.0]]}, {"children_left": [1, 2, 3, -1, -1, 6, 7, -1, -1, -1, -1], "children_right": [10, 5, 4, -1, -1, 9, 8, -1, -1, -1, -1], "threshold": [0.331206738948822, 0.3189081847667694, 0.08450813591480255, -2.0, -2.0, 0.38722406327724457, 0.11764931678771973, -2.0, -2.0, -2.0, -2.0], "feature": [10, 3, 8, -2, -2, 3, 11, -2, -2, -2, -2], "classes": [0, 1, 2], "value": [[14.0, 9.0, 4.0], [14.0, 1.0, 4.0], [2.0, 0.0, 4.0], [0.0, 0.0, 4.0], [2.0, 0.0, 0.0], [12.0, 1.0, 0.0], [1.0, 1.0, 0.0], [1.0, 0.0, 0.0], [0.0, 1.0, 0.0], [11.0, 0.0, 0.0], [0.0, 8.0, 0.0]]}, {"children_left": [1, 2, -1, 4, -1, 6, -1, -1, -1], "children_right": [8, 3, -1, 5, -1, 7, -1, -1, -1], "threshold": [0.331206738948822, 0.3695625215768814, -2.0, 11.866642951965332, -2.0, 0.37326230108737946, -2.0, -2.0, -2.0], "feature": [10, 3, -2, 1, -2, 8, -2, -2, -2], "classes": [0, 1, 2], "value": [[12.0, 7.0, 8.0], [12.0, 0.0, 8.0], [0.0, 0.0, 6.0], [12.0, 0.0, 2.0], [11.0, 0.0, 0.0], [1.0, 0.0, 2.0], [0.0, 0.0, 2.0], [1.0, 0.0, 0.0], [0.0, 7.0, 0.0]]}, {"children_left": [1, 2, 3, -1, 5, -1, -1, -1, 9, -1, -1], "children_right": [8, 7, 4, -1, 6, -1, -1, -1, 10, -1, -1], "threshold": [0.04279961995780468, 0.022911095060408115, 0.13271649926900864, -2.0, 0.01806812174618244, -2.0, -2.0, -2.0, 0.38149067759513855, -2.0, -2.0], "feature": [10, 2, 8, -2, 6, -2, -2, -2, 6, -2, -2], "classes": [0, 1, 2], "value": [[13.0, 2.0, 12.0], [6.0, 0.0, 12.0], [6.0, 0.0, 1.0], [5.0, 0.0, 0.0], [1.0, 0.0, 1.0], [1.0, 0.0, 0.0], [0.0, 0.0, 1.0], [0.0, 0.0, 11.0], [7.0, 2.0, 0.0], [7.0, 0.0, 0.0], [0.0, 2.0, 0.0]]}, {"children_left": [1, 2, 3, -1, -1, -1, 7, -1, 9, -1, -1], "children_right": [6, 5, 4, -1, -1, -1, 8, -1, 10, -1, -1], "threshold": [0.04527437686920166, 0.09757949411869049, 0.10405950620770454, -2.0, -2.0, -2.0, 0.21257871389389038, -2.0, 1.0809673070907593, -2.0, -2.0], "feature": [10, 4, 9, -2, -2, -2, 2, -2, 5, -2, -2], "classes": [0, 1, 2], "value": [[14.0, 3.0, 10.0], [4.0, 0.0, 10.0], [4.0, 0.0, 1.0], [0.0, 0.0, 1.0], [4.0, 0.0, 0.0], [0.0, 0.0, 9.0], [10.0, 3.0, 0.0], [9.0, 0.0, 0.0], [1.0, 3.0, 0.0], [1.0, 0.0, 0.0], [0.0, 3.0, 0.0]]}, {"children_left": [1, 2, 3, 4, -1, -1, -1, 8, 9, -1, -1, -1, 13, -1, -1], "children_right": [12, 7, 6, 5, -1, -1, -1, 11, 10, -1, -1, -1, 14, -1, -1], "threshold": [0.39701367914676666, 0.14858313649892807, 0.14203184098005295, 0.061142414808273315, -2.0, -2.0, -2.0, 0.04366405867040157, 0.01806812174618244, -2.0, -2.0, -2.0, 0.398126557469368, -2.0, -2.0], "feature": [4, 7, 9, 8, -2, -2, -2, 6, 2, -2, -2, -2, 11, -2, -2], "classes": [0, 1, 2], "value": [[17.0, 3.0, 7.0], [16.0, 0.0, 7.0], [12.0, 0.0, 2.0], [3.0, 0.0, 2.0], [3.0, 0.0, 0.0], [0.0, 0.0, 2.0], [9.0, 0.0, 0.0], [4.0, 0.0, 5.0], [1.0, 0.0, 5.0], [1.0, 0.0, 0.0], [0.0, 0.0, 5.0], [3.0, 0.0, 0.0], [1.0, 3.0, 0.0], [0.0, 3.0, 0.0], [1.0, 0.0, 0.0]]}, {"children_left": [1, 2, 3, 4, -1, -1, 7, -1, -1, -1, 11, -1, -1], "children_right": [10, 9, 6, 5, -1, -1, 8, -1, -1, -1, 12, -1, -1], "threshold": [0.39701367914676666, 10.732795715332031, 0.14203184098005295, 0.0485551655292511, -2.0, -2.0, 10.388766765594482, -2.0, -2.0, -2.0, 0.41892924904823303, -2.0, -2.0], "feature": [4, 1, 9, 4, -2, -2, 1, -2, -2, -2, 7, -2, -2], "classes": [0, 1, 2], "value": [[14.0, 7.0, 6.0], [12.0, 0.0, 6.0], [7.0, 0.0, 6.0], [1.0, 0.0, 4.0], [1.0, 0.0, 0.0], [0.0, 0.0, 4.0], [6.0, 0.0, 2.0], [6.0, 0.0, 0.0], [0.0, 0.0, 2.0], [5.0, 0.0, 0.0], [2.0, 7.0, 0.0], [0.0, 7.0, 0.0], [2.0, 0.0, 0.0]]}, {"children_left": [1, 2, 3, 4, -1, -1, -1, 8, -1, -1, 11, -1, 13, -1, -1], "children_right": [10, 7, 6, 5, -1, -1, -1, 9, -1, -1, 12, -1, 14, -1, -1], "threshold": [0.30726347863674164, 0.02064148336648941, 0.13271649926900864, 0.06782313622534275, -2.0, -2.0, -2.0, 0.037291789427399635, -2.0, -2.0, 0.062426282092928886, -2.0, 1.0509427189826965, -2.0, -2.0], "feature": [8, 10, 8, 11, -2, -2, -2, 2, -2, -2, 2, -2, 8, -2, -2], "classes": [0, 1, 2], "value": [[10.0, 4.0, 13.0], [6.0, 0.0, 13.0], [1.0, 0.0, 10.0], [1.0, 0.0, 3.0], [0.0, 0.0, 3.0], [1.0, 0.0, 0.0], [0.0, 0.0, 7.0], [5.0, 0.0, 3.0], [5.0, 0.0, 0.0], [0.0, 0.0, 3.0], [4.0, 4.0, 0.0], [0.0, 2.0, 0.0], [4.0, 2.0, 0.0], [4.0, 0.0, 0.0], [0.0, 2.0, 0.0]]}, {"children_left": [1, 2, 3, -1, -1, 6, 7, 8, -1, 10, -1, -1, -1, -1, -1], "children_right": [14, 5, 4, -1, -1, 13, 12, 9, -1, 11, -1, -1, -1, -1, -1], "threshold": [0.7319960594177246, 0.14203184098005295, 0.061142414808273315, -2.0, -2.0, 0.34556688368320465, 11.823716163635254, 0.1412186324596405, -2.0, 0.5630240142345428, -2.0, -2.0, -2.0, -2.0, -2.0], "feature": [4, 9, 8, -2, -2, 8, 1, 8, -2, 9, -2, -2, -2, -2, -2], "classes": [0, 1, 2], "value": [[18.0, 2.0, 7.0], [18.0, 0.0, 7.0], [1.0, 0.0, 3.0], [1.0, 0.0, 0.0], [0.0, 0.0, 3.0], [17.0, 0.0, 4.0], [9.0, 0.0, 4.0], [9.0, 0.0, 1.0], [7.0, 0.0, 0.0], [2.0, 0.0, 1.0], [0.0, 0.0, 1.0], [2.0, 0.0, 0.0], [0.0, 0.0, 3.0], [8.0, 0.0, 0.0], [0.0, 2.0, 0.0]]}, {"children_left": [1, 2, 3, 4, 5, 6, -1, -1, -1, -1, -1, -1, -1], "children_right": [12, 11, 10, 9, 8, 7, -1, -1, -1, -1, -1, -1, -1], "threshold": [0.7924273312091827, 0.34556688368320465, 0.1710963398218155, 0.0415105726569891, 0.13832664489746094, 0.05922406632453203, -2.0, -2.0, -2.0, -2.0, -2.0, -2.0, -2.0], "feature": [4, 8, 11, 2, 9, 3, -2, -2, -2, -2, -2, -2, -2], "classes": [0, 1, 2], "value": [[13.0, 6.0, 8.0], [13.0, 0.0, 8.0], [7.0, 0.0, 8.0], [7.0, 0.0, 2.0], [7.0, 0.0, 1.0], [2.0, 0.0, 1.0], [2.0, 0.0, 0.0], [0.0, 0.0, 1.0], [5.0, 0.0, 0.0], [0.0, 0.0, 1.0], [0.0, 0.0, 6.0], [6.0, 0.0, 0.0], [0.0, 6.0, 0.0]]}, {"children_left": [1, 2, -1, 4, 5, 6, -1, 8, -1, -1, 11, -1, -1, -1, -1], "children_right": [14, 3, -1, 13, 10, 7, -1, 9, -1, -1, 12, -1, -1, -1, -1], "threshold": [0.9918632805347443, 0.02170795574784279, -2.0, 11.669705390930176, 0.19835945963859558, 0.03534780628979206, -2.0, 0.0893992017954588, -2.0, -2.0, 0.05156557261943817, -2.0, -2.0, -2.0, -2.0], "feature": [5, 2, -2, 0, 7, 6, -2, 6, -2, -2, 6, -2, -2, -2, -2], "classes": [0, 1, 2], "value": [[13.0, 5.0, 9.0], [13.0, 2.0, 9.0], [8.0, 0.0, 0.0], [5.0, 2.0, 9.0], [5.0, 0.0, 9.0], [4.0, 0.0, 2.0], [3.0, 0.0, 0.0], [1.0, 0.0, 2.0], [0.0, 0.0, 2.0], [1.0, 0.0, 0.0], [1.0, 0.0, 7.0], [0.0, 0.0, 7.0], [1.0, 0.0, 0.0], [0.0, 2.0, 0.0], [0.0, 3.0, 0.0]]}, {"children_left": [1, 2, 3, -1, -1, -1, 7, 8, -1, -1, -1], "children_right": [6, 5, 4, -1, -1, -1, 10, 9, -1, -1, -1], "threshold": [10.272993087768555, 0.0320410393178463, 0.17631611973047256, -2.0, -2.0, -2.0, 0.93100905418396, 0.6383398026227951, -2.0, -2.0, -2.0], "feature": [0, 6, 8, -2, -2, -2, 5, 5, -2, -2, -2], "classes": [0, 1, 2], "value": [[14.0, 8.0, 5.0], [12.0, 0.0, 4.0], [3.0, 0.0, 4.0], [3.0, 0.0, 0.0], [0.0, 0.0, 4.0], [9.0, 0.0, 0.0], [2.0, 8.0, 1.0], [2.0, 0.0, 1.0], [0.0, 0.0, 1.0], [2.0, 0.0, 0.0], [0.0, 8.0, 0.0]]}, {"children_left": [1, 2, -1, 4, 5, 6, -1, -1, -1, -1, 11, -1, -1], "children_right": [10, 3, -1, 9, 8, 7, -1, -1, -1, -1, 12, -1, -1], "threshold": [0.9918632805347443, 10.78923511505127, -2.0, 11.267334938049316, 10.206446647644043, 11.823716163635254, -2.0, -2.0, -2.0, -2.0, 0.41892924904823303, -2.0, -2.0], "feature": [5, 1, -2, 0, 0, 1, -2, -2, -2, -2, 7, -2, -2], "classes": [0, 1, 2], "value": [[11.0, 8.0, 8.0], [9.0, 1.0, 8.0], [0.0, 0.0, 6.0], [9.0, 1.0, 2.0], [9.0, 0.0, 2.0], [2.0, 0.0, 2.0], [2.0, 0.0, 0.0], [0.0, 0.0, 2.0], [7.0, 0.0, 0.0], [0.0, 1.0, 0.0], [2.0, 7.0, 0.0], [0.0, 7.0, 0.0], [2.0, 0.0, 0.0]]}, {"children_left": [1, 2, 3, -1, 5, 6, -1, -1, -1, -1, 11, -1, 13, -1, -1], "children_right": [10, 9, 4, -1, 8, 7, -1, -1, -1, -1, 12, -1, 14, -1, -1], "threshold": [0.36465080082416534, 0.04279961995780468, 0.01806812174618244, -2.0, 0.1129673421382904, 0.039763106033205986, -2.0, -2.0, -2.0, -2.0, 0.7075482606887817, -2.0, 1.620051920413971, -2.0, -2.0], "feature": [4, 10, 2, -2, 4, 2, -2, -2, -2, -2, 8, -2, 9, -2, -2], "classes": [0, 1, 2], "value": [[9.0, 4.0, 14.0], [8.0, 0.0, 14.0], [3.0, 0.0, 14.0], [2.0, 0.0, 0.0], [1.0, 0.0, 14.0], [1.0, 0.0, 3.0], [1.0, 0.0, 0.0], [0.0, 0.0, 3.0], [0.0, 0.0, 11.0], [5.0, 0.0, 0.0], [1.0, 4.0, 0.0], [0.0, 2.0, 0.0], [1.0, 2.0, 0.0], [0.0, 2.0, 0.0], [1.0, 0.0, 0.0]]}, {"children_left": [1, 2, -1, -1, 5, 6, 7, -1, -1, -1, -1], "children_right": [4, 3, -1, -1, 10, 9, 8, -1, -1, -1, -1], "threshold": [0.04394482634961605, 0.015752405393868685, -2.0, -2.0, 10.808321475982666, 1.6545092463493347, 0.4571807235479355, -2.0, -2.0, -2.0, -2.0], "feature": [10, 6, -2, -2, 0, 5, 3, -2, -2, -2, -2], "classes": [0, 1, 2], "value": [[12.0, 7.0, 8.0], [1.0, 0.0, 8.0], [1.0, 0.0, 0.0], [0.0, 0.0, 8.0], [11.0, 7.0, 0.0], [11.0, 3.0, 0.0], [11.0, 1.0, 0.0], [0.0, 1.0, 0.0], [11.0, 0.0, 0.0], [0.0, 2.0, 0.0], [0.0, 4.0, 0.0]]}, {"children_left": [1, 2, 3, -1, -1, -1, -1], "children_right": [6, 5, 4, -1, -1, -1, -1], "threshold": [0.3523450493812561, 10.805715084075928, 0.022911095060408115, -2.0, -2.0, -2.0, -2.0], "feature": [10, 1, 6, -2, -2, -2, -2], "classes": [0, 1, 2], "value": [[16.0, 6.0, 5.0], [16.0, 0.0, 5.0], [5.0, 0.0, 5.0], [5.0, 0.0, 0.0], [0.0, 0.0, 5.0], [11.0, 0.0, 0.0], [0.0, 6.0, 0.0]]}, {"children_left": [1, 2, -1, 4, -1, -1, 7, -1, -1], "children_right": [6, 3, -1, 5, -1, -1, 8, -1, -1], "threshold": [0.979746401309967, 0.07785770297050476, -2.0, 0.04394482634961605, -2.0, -2.0, 0.7319960594177246, -2.0, -2.0], "feature": [5, 5, -2, 10, -2, -2, 4, -2, -2], "classes": [0, 1, 2], "value": [[10.0, 6.0, 11.0], [9.0, 0.0, 11.0], [3.0, 0.0, 0.0], [6.0, 0.0, 11.0], [0.0, 0.0, 11.0], [6.0, 0.0, 0.0], [1.0, 6.0, 0.0], [1.0, 0.0, 0.0], [0.0, 6.0, 0.0]]}, {"children_left": [1, 2, 3, 4, -1, 6, 7, -1, -1, 10, -1, -1, -1, -1, -1], "children_right": [14, 13, 12, 5, -1, 9, 8, -1, -1, 11, -1, -1, -1, -1, -1], "threshold": [0.1417148932814598, 0.3554455041885376, 0.2949032187461853, 0.07497849315404892, -2.0, 0.11760189011693001, 0.12249691784381866, -2.0, -2.0, 0.21492446959018707, -2.0, -2.0, -2.0, -2.0, -2.0], "feature": [2, 8, 8, 8, -2, 4, 3, -2, -2, 4, -2, -2, -2, -2, -2], "classes": [0, 1, 2], "value": [[13.0, 8.0, 6.0], [13.0, 3.0, 6.0], [8.0, 3.0, 6.0], [8.0, 0.0, 6.0], [4.0, 0.0, 0.0], [4.0, 0.0, 6.0], [3.0, 0.0, 1.0], [0.0, 0.0, 1.0], [3.0, 0.0, 0.0], [1.0, 0.0, 5.0], [0.0, 0.0, 5.0], [1.0, 0.0, 0.0], [0.0, 3.0, 0.0], [5.0, 0.0, 0.0], [0.0, 5.0, 0.0]]}, {"children_left": [1, 2, 3, -1, 5, 6, -1, -1, -1, 10, -1, 12, -1, 14, -1, -1, 17, -1, -1], "children_right": [16, 9, 4, -1, 8, 7, -1, -1, -1, 11, -1, 13, -1, 15, -1, -1, 18, -1, -1], "threshold": [0.05639680102467537, 10.051245212554932, 0.3695625215768814, -2.0, 0.0320410393178463, 0.8218013346195221, -2.0, -2.0, -2.0, 0.017746216617524624, -2.0, 0.5234763771295547, -2.0, 0.6383398026227951, -2.0, -2.0, 0.5343614220619202, -2.0, -2.0], "feature": [2, 0, 3, -2, 6, 3, -2, -2, -2, 10, -2, 9, -2, 5, -2, -2, 5, -2, -2], "classes": [0, 1, 2], "value": [[13.0, 5.0, 9.0], [12.0, 0.0, 9.0], [3.0, 0.0, 7.0], [0.0, 0.0, 4.0], [3.0, 0.0, 3.0], [1.0, 0.0, 3.0], [1.0, 0.0, 0.0], [0.0, 0.0, 3.0], [2.0, 0.0, 0.0], [9.0, 0.0, 2.0], [0.0, 0.0, 1.0], [9.0, 0.0, 1.0], [6.0, 0.0, 0.0], [3.0, 0.0, 1.0], [0.0, 0.0, 1.0], [3.0, 0.0, 0.0], [1.0, 5.0, 0.0], [1.0, 0.0, 0.0], [0.0, 5.0, 0.0]]}, {"children_left": [1, 2, 3, -1, 5, 6, -1, -1, -1, 10, 11, -1, -1, -1, -1], "children_right": [14, 9, 4, -1, 8, 7, -1, -1, -1, 13, 12, -1, -1, -1, -1], "threshold": [11.210691928863525, 0.04160032421350479, 0.02082448173314333, -2.0, 0.037291789427399635, 0.81996288895607, -2.0, -2.0, -2.0, 10.676091194152832, 0.0449550012126565, -2.0, -2.0, -2.0, -2.0], "feature": [0, 10, 2, -2, 2, 3, -2, -2, -2, 1, 6, -2, -2, -2, -2], "classes": [0, 1, 2], "value": [[11.0, 8.0, 8.0], [11.0, 1.0, 8.0], [5.0, 0.0, 8.0], [4.0, 0.0, 0.0], [1.0, 0.0, 8.0], [1.0, 0.0, 2.0], [1.0, 0.0, 0.0], [0.0, 0.0, 2.0], [0.0, 0.0, 6.0], [6.0, 1.0, 0.0], [1.0, 1.0, 0.0], [1.0, 0.0, 0.0], [0.0, 1.0, 0.0], [5.0, 0.0, 0.0], [0.0, 7.0, 0.0]]}, {"children_left": [1, 2, 3, -1, -1, 6, 7, -1, -1, 10, -1, 12, -1, -1, -1], "children_right": [14, 5, 4, -1, -1, 9, 8, -1, -1, 11, -1, 13, -1, -1, -1], "threshold": [0.3876277059316635, 0.022911095060408115, 0.010848118690773845, -2.0, -2.0, 10.8565354347229, 0.061142414808273315, -2.0, -2.0, 11.85520315170288, -2.0, 0.08796107769012451, -2.0, -2.0, -2.0], "feature": [4, 2, 10, -2, -2, 1, 8, -2, -2, 1, -2, 2, -2, -2, -2], "classes": [0, 1, 2], "value": [[12.0, 5.0, 10.0], [12.0, 0.0, 10.0], [8.0, 0.0, 1.0], [0.0, 0.0, 1.0], [8.0, 0.0, 0.0], [4.0, 0.0, 9.0], [1.0, 0.0, 7.0], [1.0, 0.0, 0.0], [0.0, 0.0, 7.0], [3.0, 0.0, 2.0], [2.0, 0.0, 0.0], [1.0, 0.0, 2.0], [0.0, 0.0, 2.0], [1.0, 0.0, 0.0], [0.0, 5.0, 0.0]]}, {"children_left": [1, 2, 3, 4, -1, -1, -1, -1, -1], "children_right": [8, 7, 6, 5, -1, -1, -1, -1, -1], "threshold": [0.41999058425426483, 0.34556688368320465, 0.02975433226674795, 0.25048597157001495, -2.0, -2.0, -2.0, -2.0, -2.0], "feature": [4, 8, 6, 8, -2, -2, -2, -2, -2], "classes": [0, 1, 2], "value": [[11.0, 8.0, 8.0], [11.0, 0.0, 8.0], [6.0, 0.0, 8.0], [6.0, 0.0, 1.0], [6.0, 0.0, 0.0], [0.0, 0.0, 1.0], [0.0, 0.0, 7.0], [5.0, 0.0, 0.0], [0.0, 8.0, 0.0]]}, {"children_left": [1, 2, 3, 4, -1, -1, -1, 8, -1, 10, -1, -1, 13, -1, -1], "children_right": [12, 7, 6, 5, -1, -1, -1, 9, -1, 11, -1, -1, 14, -1, -1], "threshold": [0.39701367914676666, 0.02064148336648941, 0.1924295574426651, 0.10487249121069908, -2.0, -2.0, -2.0, 0.040072448551654816, -2.0, 0.26872189342975616, -2.0, -2.0, 0.24770834296941757, -2.0, -2.0], "feature": [4, 10, 8, 9, -2, -2, -2, 6, -2, 4, -2, -2, 6, -2, -2], "classes": [0, 1, 2], "value": [[15.0, 4.0, 8.0], [13.0, 0.0, 8.0], [3.0, 0.0, 7.0], [3.0, 0.0, 1.0], [0.0, 0.0, 1.0], [3.0, 0.0, 0.0], [0.0, 0.0, 6.0], [10.0, 0.0, 1.0], [8.0, 0.0, 0.0], [2.0, 0.0, 1.0], [0.0, 0.0, 1.0], [2.0, 0.0, 0.0], [2.0, 4.0, 0.0], [0.0, 4.0, 0.0], [2.0, 0.0, 0.0]]}, {"children_left": [1, 2, -1, 4, 5, 6, -1, -1, -1, 10, -1, -1, -1], "children_right": [12, 3, -1, 9, 8, 7, -1, -1, -1, 11, -1, -1, -1], "threshold": [0.39701367914676666, 0.01806812174618244, -2.0, 9.873437881469727, 0.02847948484122753, 0.1614919025450945, -2.0, -2.0, -2.0, 0.061761440709233284, -2.0, -2.0, -2.0], "feature": [4, 6, -2, 0, 6, 8, -2, -2, -2, 5, -2, -2, -2], "classes": [0, 1, 2], "value": [[9.0, 8.0, 10.0], [9.0, 0.0, 10.0], [3.0, 0.0, 0.0], [6.0, 0.0, 10.0], [5.0, 0.0, 2.0], [1.0, 0.0, 2.0], [1.0, 0.0, 0.0], [0.0, 0.0, 2.0], [4.0, 0.0, 0.0], [1.0, 0.0, 8.0], [1.0, 0.0, 0.0], [0.0, 0.0, 8.0], [0.0, 8.0, 0.0]]}, {"children_left": [1, 2, -1, -1, 5, 6, -1, -1, 9, -1, 11, -1, -1], "children_right": [4, 3, -1, -1, 8, 7, -1, -1, 10, -1, 12, -1, -1], "threshold": [0.037291789427399635, 11.96007776260376, -2.0, -2.0, 0.3034951388835907, 0.04527631402015686, -2.0, -2.0, 0.398126557469368, -2.0, 10.682216167449951, -2.0, -2.0], "feature": [6, 1, -2, -2, 4, 10, -2, -2, 11, -2, 0, -2, -2], "classes": [0, 1, 2], "value": [[12.0, 4.0, 11.0], [10.0, 0.0, 2.0], [10.0, 0.0, 0.0], [0.0, 0.0, 2.0], [2.0, 4.0, 9.0], [1.0, 0.0, 9.0], [0.0, 0.0, 9.0], [1.0, 0.0, 0.0], [1.0, 4.0, 0.0], [0.0, 3.0, 0.0], [1.0, 1.0, 0.0], [1.0, 0.0, 0.0], [0.0, 1.0, 0.0]]}, {"children_left": [1, 2, -1, 4, -1, -1, 7, -1, 9, -1, 11, 12, -1, -1, -1], "children_right": [6, 3, -1, 5, -1, -1, 8, -1, 10, -1, 14, 13, -1, -1, -1], "threshold": [0.0415105726569891, 0.14858313649892807, -2.0, 0.01806812174618244, -2.0, -2.0, 0.08675897307693958, -2.0, 0.17569656670093536, -2.0, 1.0307385921478271, 0.24199078232049942, -2.0, -2.0, -2.0], "feature": [2, 7, -2, 2, -2, -2, 7, -2, 11, -2, 5, 7, -2, -2, -2], "classes": [0, 1, 2], "value": [[16.0, 4.0, 7.0], [13.0, 0.0, 3.0], [9.0, 0.0, 0.0], [4.0, 0.0, 3.0], [4.0, 0.0, 0.0], [0.0, 0.0, 3.0], [3.0, 4.0, 4.0], [0.0, 0.0, 4.0], [3.0, 4.0, 0.0], [0.0, 3.0, 0.0], [3.0, 1.0, 0.0], [1.0, 1.0, 0.0], [1.0, 0.0, 0.0], [0.0, 1.0, 0.0], [2.0, 0.0, 0.0]]}, {"children_left": [1, 2, 3, 4, -1, -1, -1, -1, 9, 10, -1, -1, -1], "children_right": [8, 7, 6, 5, -1, -1, -1, -1, 12, 11, -1, -1, -1], "threshold": [12.160515785217285, 10.732795715332031, 0.09826287999749184, 0.059489766135811806, -2.0, -2.0, -2.0, -2.0, 0.09444784373044968, 0.02687340322881937, -2.0, -2.0, -2.0], "feature": [1, 1, 11, 4, -2, -2, -2, -2, 2, 6, -2, -2, -2], "classes": [0, 1, 2], "value": [[13.0, 7.0, 7.0], [12.0, 0.0, 4.0], [2.0, 0.0, 4.0], [2.0, 0.0, 1.0], [2.0, 0.0, 0.0], [0.0, 0.0, 1.0], [0.0, 0.0, 3.0], [10.0, 0.0, 0.0], [1.0, 7.0, 3.0], [1.0, 0.0, 3.0], [1.0, 0.0, 0.0], [0.0, 0.0, 3.0], [0.0, 7.0, 0.0]]}, {"children_left": [1, 2, 3, -1, -1, 6, -1, 8, -1, -1, 11, -1, -1], "children_right": [10, 5, 4, -1, -1, 7, -1, 9, -1, -1, 12, -1, -1], "threshold": [0.5380208492279053, 0.04078558646142483, 0.033061099238693714, -2.0, -2.0, 0.02170795574784279, -2.0, 0.5234763771295547, -2.0, -2.0, 0.41999058425426483, -2.0, -2.0], "feature": [8, 11, 6, -2, -2, 2, -2, 9, -2, -2, 4, -2, -2], "classes": [0, 1, 2], "value": [[9.0, 7.0, 11.0], [8.0, 0.0, 11.0], [1.0, 0.0, 8.0], [1.0, 0.0, 0.0], [0.0, 0.0, 8.0], [7.0, 0.0, 3.0], [6.0, 0.0, 0.0], [1.0, 0.0, 3.0], [1.0, 0.0, 0.0], [0.0, 0.0, 3.0], [1.0, 7.0, 0.0], [1.0, 0.0, 0.0], [0.0, 7.0, 0.0]]}, {"children_left": [1, 2, 3, -1, -1, 6, -1, -1, 9, -1, -1], "children_right": [8, 5, 4, -1, -1, 7, -1, -1, 10, -1, -1], "threshold": [0.05639680102467537, 0.1412186324596405, 0.037291789427399635, -2.0, -2.0, 0.9625720083713531, -2.0, -2.0, 0.17569656670093536, -2.0, -2.0], "feature": [2, 8, 2, -2, -2, 5, -2, -2, 7, -2, -2], "classes": [0, 1, 2], "value": [[14.0, 2.0, 11.0], [8.0, 0.0, 11.0], [7.0, 0.0, 3.0], [7.0, 0.0, 0.0], [0.0, 0.0, 3.0], [1.0, 0.0, 8.0], [0.0, 0.0, 8.0], [1.0, 0.0, 0.0], [6.0, 2.0, 0.0], [0.0, 2.0, 0.0], [6.0, 0.0, 0.0]]}, {"children_left": [1, 2, 3, 4, -1, -1, -1, 8, -1, -1, -1], "children_right": [10, 7, 6, 5, -1, -1, -1, 9, -1, -1, -1], "threshold": [0.331206738948822, 0.21492446959018707, 0.1166030615568161, 0.039763106033205986, -2.0, -2.0, -2.0, 0.6060088574886322, -2.0, -2.0, -2.0], "feature": [10, 4, 8, 2, -2, -2, -2, 9, -2, -2, -2], "classes": [0, 1, 2], "value": [[14.0, 7.0, 6.0], [14.0, 1.0, 6.0], [6.0, 0.0, 6.0], [6.0, 0.0, 1.0], [6.0, 0.0, 0.0], [0.0, 0.0, 1.0], [0.0, 0.0, 5.0], [8.0, 1.0, 0.0], [0.0, 1.0, 0.0], [8.0, 0.0, 0.0], [0.0, 6.0, 0.0]]}, {"children_left": [1, 2, 3, -1, -1, 6, -1, 8, -1, -1, -1], "children_right": [10, 5, 4, -1, -1, 7, -1, 9, -1, -1, -1], "threshold": [0.9855968058109283, 0.14858313649892807, 0.14203184098005295, -2.0, -2.0, 0.6365240961313248, -2.0, 0.10531938821077347, -2.0, -2.0, -2.0], "feature": [5, 11, 9, -2, -2, 8, -2, 6, -2, -2, -2], "classes": [0, 1, 2], "value": [[9.0, 8.0, 10.0], [9.0, 1.0, 10.0], [8.0, 0.0, 2.0], [0.0, 0.0, 2.0], [8.0, 0.0, 0.0], [1.0, 1.0, 8.0], [0.0, 0.0, 8.0], [1.0, 1.0, 0.0], [1.0, 0.0, 0.0], [0.0, 1.0, 0.0], [0.0, 7.0, 0.0]]}, {"children_left": [1, 2, 3, 4, 5, -1, -1, -1, 9, 10, 11, -1, -1, -1, -1, -1, -1], "children_right": [16, 15, 8, 7, 6, -1, -1, -1, 14, 13, 12, -1, -1, -1, -1, -1, -1], "threshold": [0.3902639001607895, 0.2421424798667431, 10.194174766540527, 10.137371063232422, 0.10797933116555214, -2.0, -2.0, -2.0, 0.9718465209007263, 0.11779900640249252, 0.055075534619390965, -2.0, -2.0, -2.0, -2.0, -2.0, -2.0], "feature": [7, 2, 1, 1, 9, -2, -2, -2, 5, 7, 7, -2, -2, -2, -2, -2, -2], "classes": [0, 1, 2], "value": [[12.0, 3.0, 12.0], [5.0, 3.0, 12.0], [5.0, 0.0, 12.0], [3.0, 0.0, 1.0], [1.0, 0.0, 1.0], [1.0, 0.0, 0.0], [0.0, 0.0, 1.0], [2.0, 0.0, 0.0], [2.0, 0.0, 11.0], [1.0, 0.0, 11.0], [1.0, 0.0, 5.0], [0.0, 0.0, 5.0], [1.0, 0.0, 0.0], [0.0, 0.0, 6.0], [1.0, 0.0, 0.0], [0.0, 3.0, 0.0], [7.0, 0.0, 0.0]]}, {"children_left": [1, 2, -1, 4, 5, 6, -1, -1, -1, -1, 11, -1, -1], "children_right": [10, 3, -1, 9, 8, 7, -1, -1, -1, -1, 12, -1, -1], "threshold": [0.6193604171276093, 0.019467648584395647, -2.0, 0.04527631402015686, 0.0776551142334938, 0.18900448083877563, -2.0, -2.0, -2.0, -2.0, 0.16376100480556488, -2.0, -2.0], "feature": [5, 6, -2, 10, 8, 9, -2, -2, -2, -2, 10, -2, -2], "classes": [0, 1, 2], "value": [[10.0, 10.0, 7.0], [7.0, 0.0, 7.0], [4.0, 0.0, 0.0], [3.0, 0.0, 7.0], [1.0, 0.0, 7.0], [1.0, 0.0, 2.0], [0.0, 0.0, 2.0], [1.0, 0.0, 0.0], [0.0, 0.0, 5.0], [2.0, 0.0, 0.0], [3.0, 10.0, 0.0], [3.0, 0.0, 0.0], [0.0, 10.0, 0.0]]}, {"children_left": [1, 2, -1, 4, 5, 6, -1, -1, -1, -1, 11, 12, -1, -1, -1], "children_right": [10, 3, -1, 9, 8, 7, -1, -1, -1, -1, 14, 13, -1, -1, -1], "threshold": [0.1417148932814598, 0.02170795574784279, -2.0, 0.04279961995780468, 0.14031220972537994, 0.3189081847667694, -2.0, -2.0, -2.0, -2.0, 0.8775044083595276, 0.398126557469368, -2.0, -2.0, -2.0], "feature": [2, 6, -2, 10, 11, 3, -2, -2, -2, -2, 8, 7, -2, -2, -2], "classes": [0, 1, 2], "value": [[15.0, 5.0, 7.0], [14.0, 0.0, 7.0], [7.0, 0.0, 0.0], [7.0, 0.0, 7.0], [1.0, 0.0, 7.0], [1.0, 0.0, 3.0], [0.0, 0.0, 3.0], [1.0, 0.0, 0.0], [0.0, 0.0, 4.0], [6.0, 0.0, 0.0], [1.0, 5.0, 0.0], [1.0, 2.0, 0.0], [0.0, 2.0, 0.0], [1.0, 0.0, 0.0], [0.0, 3.0, 0.0]]}, {"children_left": [1, 2, 3, -1, 5, -1, -1, 8, -1, 10, -1, -1, -1], "children_right": [12, 7, 4, -1, 6, -1, -1, 9, -1, 11, -1, -1, -1], "threshold": [0.7319960594177246, 0.040072448551654816, 0.4117201641201973, -2.0, 0.01806812174618244, -2.0, -2.0, 0.11039714515209198, -2.0, 0.5365539938211441, -2.0, -2.0, -2.0], "feature": [4, 2, 5, -2, 6, -2, -2, 10, -2, 4, -2, -2, -2], "classes": [0, 1, 2], "value": [[13.0, 6.0, 8.0], [13.0, 1.0, 8.0], [11.0, 0.0, 3.0], [9.0, 0.0, 0.0], [2.0, 0.0, 3.0], [2.0, 0.0, 0.0], [0.0, 0.0, 3.0], [2.0, 1.0, 5.0], [0.0, 0.0, 5.0], [2.0, 1.0, 0.0], [0.0, 1.0, 0.0], [2.0, 0.0, 0.0], [0.0, 5.0, 0.0]]}, {"children_left": [1, 2, -1, 4, 5, -1, -1, -1, 9, 10, -1, -1, -1], "children_right": [8, 3, -1, 7, 6, -1, -1, -1, 12, 11, -1, -1, -1], "threshold": [0.04527437686920166, 0.015752405393868685, -2.0, 0.1129673421382904, 0.037291789427399635, -2.0, -2.0, -2.0, 10.272993087768555, 0.814962700009346, -2.0, -2.0, -2.0], "feature": [10, 6, -2, 4, 6, -2, -2, -2, 0, 3, -2, -2, -2], "classes": [0, 1, 2], "value": [[12.0, 6.0, 9.0], [2.0, 0.0, 9.0], [1.0, 0.0, 0.0], [1.0, 0.0, 9.0], [1.0, 0.0, 2.0], [1.0, 0.0, 0.0], [0.0, 0.0, 2.0], [0.0, 0.0, 7.0], [10.0, 6.0, 0.0], [10.0, 1.0, 0.0], [0.0, 1.0, 0.0], [10.0, 0.0, 0.0], [0.0, 5.0, 0.0]]}, {"children_left": [1, 2, -1, 4, -1, 6, 7, -1, 9, 10, -1, -1, -1, -1, -1], "children_right": [14, 3, -1, 5, -1, 13, 8, -1, 12, 11, -1, -1, -1, -1, -1], "threshold": [0.16376100480556488, 0.02170795574784279, -2.0, 9.41469669342041, -2.0, 0.5674491971731186, 0.05397920683026314, -2.0, 9.697514057159424, 10.40524673461914, -2.0, -2.0, -2.0, -2.0, -2.0], "feature": [10, 6, -2, 0, -2, 11, 4, -2, 0, 1, -2, -2, -2, -2, -2], "classes": [0, 1, 2], "value": [[12.0, 4.0, 11.0], [12.0, 0.0, 11.0], [6.0, 0.0, 0.0], [6.0, 0.0, 11.0], [3.0, 0.0, 0.0], [3.0, 0.0, 11.0], [2.0, 0.0, 11.0], [1.0, 0.0, 0.0], [1.0, 0.0, 11.0], [1.0, 0.0, 3.0], [1.0, 0.0, 0.0], [0.0, 0.0, 3.0], [0.0, 0.0, 8.0], [1.0, 0.0, 0.0], [0.0, 4.0, 0.0]]}, {"children_left": [1, 2, 3, -1, -1, 6, 7, 8, -1, -1, -1, -1, 13, 14, -1, -1, -1], "children_right": [12, 5, 4, -1, -1, 11, 10, 9, -1, -1, -1, -1, 16, 15, -1, -1, -1], "threshold": [0.16376100480556488, 0.11547898128628731, 0.23004350438714027, -2.0, -2.0, 0.3902639001607895, 9.781227588653564, 0.18626439571380615, -2.0, -2.0, -2.0, -2.0, 0.41892924904823303, 0.7250830233097076, -2.0, -2.0, -2.0], "feature": [10, 4, 3, -2, -2, 11, 0, 4, -2, -2, -2, -2, 11, 5, -2, -2, -2], "classes": [0, 1, 2], "value": [[12.0, 5.0, 10.0], [10.0, 0.0, 10.0], [7.0, 0.0, 1.0], [0.0, 0.0, 1.0], [7.0, 0.0, 0.0], [3.0, 0.0, 9.0], [1.0, 0.0, 9.0], [1.0, 0.0, 2.0], [0.0, 0.0, 2.0], [1.0, 0.0, 0.0], [0.0, 0.0, 7.0], [2.0, 0.0, 0.0], [2.0, 5.0, 0.0], [1.0, 5.0, 0.0], [1.0, 0.0, 0.0], [0.0, 5.0, 0.0], [1.0, 0.0, 0.0]]}, {"children_left": [1, 2, 3, -1, -1, -1, 7, -1, -1], "children_right": [6, 5, 4, -1, -1, -1, 8, -1, -1], "threshold": [0.3146621137857437, 0.11760189011693001, 0.037291789427399635, -2.0, -2.0, -2.0, 0.3262961357831955, -2.0, -2.0], "feature": [8, 4, 6, -2, -2, -2, 4, -2, -2], "classes": [0, 1, 2], "value": [[4.0, 7.0, 16.0], [3.0, 0.0, 16.0], [3.0, 0.0, 2.0], [3.0, 0.0, 0.0], [0.0, 0.0, 2.0], [0.0, 0.0, 14.0], [1.0, 7.0, 0.0], [1.0, 0.0, 0.0], [0.0, 7.0, 0.0]]}, {"children_left": [1, -1, 3, 4, 5, -1, -1, -1, -1], "children_right": [2, -1, 8, 7, 6, -1, -1, -1, -1], "threshold": [0.014535077381879091, -2.0, 0.429085448384285, 0.16787432879209518, 0.10136615484952927, -2.0, -2.0, -2.0, -2.0], "feature": [10, -2, 6, 4, 4, -2, -2, -2, -2], "classes": [0, 1, 2], "value": [[14.0, 4.0, 9.0], [0.0, 0.0, 6.0], [14.0, 4.0, 3.0], [14.0, 0.0, 3.0], [5.0, 0.0, 3.0], [5.0, 0.0, 0.0], [0.0, 0.0, 3.0], [9.0, 0.0, 0.0], [0.0, 4.0, 0.0]]}, {"children_left": [1, 2, 3, 4, -1, -1, -1, 8, -1, -1, -1], "children_right": [10, 7, 6, 5, -1, -1, -1, 9, -1, -1, -1], "threshold": [0.36465080082416534, 0.11760189011693001, 0.12249691784381866, 0.061761440709233284, -2.0, -2.0, -2.0, 0.10187337920069695, -2.0, -2.0, -2.0], "feature": [4, 4, 3, 5, -2, -2, -2, 6, -2, -2, -2], "classes": [0, 1, 2], "value": [[10.0, 3.0, 14.0], [10.0, 0.0, 14.0], [9.0, 0.0, 4.0], [1.0, 0.0, 4.0], [1.0, 0.0, 0.0], [0.0, 0.0, 4.0], [8.0, 0.0, 0.0], [1.0, 0.0, 10.0], [0.0, 0.0, 10.0], [1.0, 0.0, 0.0], [0.0, 3.0, 0.0]]}, {"children_left": [1, 2, 3, 4, -1, 6, -1, 8, -1, -1, 11, -1, -1, -1, 15, -1, 17, -1, -1], "children_right": [14, 13, 10, 5, -1, 7, -1, 9, -1, -1, 12, -1, -1, -1, 16, -1, 18, -1, -1], "threshold": [0.36465080082416534, 0.21492446959018707, 0.4413576275110245, 0.0485551655292511, -2.0, 10.063533306121826, -2.0, 10.349123477935791, -2.0, -2.0, 0.1710963398218155, -2.0, -2.0, -2.0, 0.41892924904823303, -2.0, 0.5595308989286423, -2.0, -2.0], "feature": [4, 4, 3, 4, -2, 0, -2, 1, -2, -2, 11, -2, -2, -2, 11, -2, 4, -2, -2], "classes": [0, 1, 2], "value": [[11.0, 6.0, 10.0], [10.0, 0.0, 10.0], [6.0, 0.0, 10.0], [2.0, 0.0, 8.0], [1.0, 0.0, 0.0], [1.0, 0.0, 8.0], [0.0, 0.0, 6.0], [1.0, 0.0, 2.0], [1.0, 0.0, 0.0], [0.0, 0.0, 2.0], [4.0, 0.0, 2.0], [4.0, 0.0, 0.0], [0.0, 0.0, 2.0], [4.0, 0.0, 0.0], [1.0, 6.0, 0.0], [0.0, 5.0, 0.0], [1.0, 1.0, 0.0], [0.0, 1.0, 0.0], [1.0, 0.0, 0.0]]}, {"children_left": [1, 2, -1, 4, 5, -1, -1, -1, 9, -1, -1], "children_right": [8, 3, -1, 7, 6, -1, -1, -1, 10, -1, -1], "threshold": [0.9918632805347443, 0.14203184098005295, -2.0, 0.0320410393178463, 0.19331355392932892, -2.0, -2.0, -2.0, 0.41892924904823303, -2.0, -2.0], "feature": [5, 9, -2, 2, 11, -2, -2, -2, 7, -2, -2], "classes": [0, 1, 2], "value": [[11.0, 6.0, 10.0], [10.0, 0.0, 10.0], [0.0, 0.0, 5.0], [10.0, 0.0, 5.0], [2.0, 0.0, 5.0], [2.0, 0.0, 0.0], [0.0, 0.0, 5.0], [8.0, 0.0, 0.0], [1.0, 6.0, 0.0], [0.0, 6.0, 0.0], [1.0, 0.0, 0.0]]}, {"children_left": [1, 2, 3, 4, -1, 6, 7, -1, -1, -1, -1, 12, -1, -1, -1], "children_right": [14, 11, 10, 5, -1, 9, 8, -1, -1, -1, -1, 13, -1, -1, -1], "threshold": [2.5466034412384033, 10.316266059875488, 0.03814702294766903, 0.01806812174618244, -2.0, 9.731171131134033, 0.18714671581983566, -2.0, -2.0, -2.0, -2.0, 0.7197925299406052, -2.0, -2.0, -2.0], "feature": [3, 0, 10, 6, -2, 0, 11, -2, -2, -2, -2, 5, -2, -2, -2], "classes": [0, 1, 2], "value": [[12.0, 7.0, 8.0], [12.0, 1.0, 8.0], [12.0, 0.0, 5.0], [3.0, 0.0, 5.0], [2.0, 0.0, 0.0], [1.0, 0.0, 5.0], [1.0, 0.0, 1.0], [1.0, 0.0, 0.0], [0.0, 0.0, 1.0], [0.0, 0.0, 4.0], [9.0, 0.0, 0.0], [0.0, 1.0, 3.0], [0.0, 0.0, 3.0], [0.0, 1.0, 0.0], [0.0, 6.0, 0.0]]}, {"children_left": [1, 2, 3, -1, 5, -1, 7, -1, -1, -1, -1], "children_right": [10, 9, 4, -1, 6, -1, 8, -1, -1, -1, -1], "threshold": [0.3902639001607895, 0.7600644528865814, 0.01806812174618244, -2.0, 0.07785770297050476, -2.0, 0.04527631402015686, -2.0, -2.0, -2.0, -2.0], "feature": [11, 4, 6, -2, 5, -2, 10, -2, -2, -2, -2], "classes": [0, 1, 2], "value": [[13.0, 3.0, 11.0], [6.0, 3.0, 11.0], [6.0, 0.0, 11.0], [3.0, 0.0, 0.0], [3.0, 0.0, 11.0], [1.0, 0.0, 0.0], [2.0, 0.0, 11.0], [0.0, 0.0, 11.0], [2.0, 0.0, 0.0], [0.0, 3.0, 0.0], [7.0, 0.0, 0.0]]}, {"children_left": [1, 2, -1, 4, 5, -1, 7, -1, -1, -1, 11, -1, -1], "children_right": [10, 3, -1, 9, 6, -1, 8, -1, -1, -1, 12, -1, -1], "threshold": [10.262800693511963, 0.04725217632949352, -2.0, 0.39701367914676666, 0.19331355392932892, -2.0, 9.846659660339355, -2.0, -2.0, -2.0, 0.08062721882015467, -2.0, -2.0], "feature": [0, 7, -2, 4, 7, -2, 0, -2, -2, -2, 6, -2, -2], "classes": [0, 1, 2], "value": [[10.0, 10.0, 7.0], [9.0, 3.0, 7.0], [0.0, 0.0, 4.0], [9.0, 3.0, 3.0], [9.0, 0.0, 3.0], [8.0, 0.0, 0.0], [1.0, 0.0, 3.0], [1.0, 0.0, 0.0], [0.0, 0.0, 3.0], [0.0, 3.0, 0.0], [1.0, 7.0, 0.0], [1.0, 0.0, 0.0], [0.0, 7.0, 0.0]]}, {"children_left": [1, 2, -1, 4, 5, -1, -1, -1, -1], "children_right": [8, 3, -1, 7, 6, -1, -1, -1, -1], "threshold": [0.5731149017810822, 0.04078558646142483, -2.0, 2.178464412689209, 0.014299506787210703, -2.0, -2.0, -2.0, -2.0], "feature": [8, 11, -2, 3, 10, -2, -2, -2, -2], "classes": [0, 1, 2], "value": [[13.0, 6.0, 8.0], [13.0, 0.0, 8.0], [0.0, 0.0, 5.0], [13.0, 0.0, 3.0], [13.0, 0.0, 1.0], [0.0, 0.0, 1.0], [13.0, 0.0, 0.0], [0.0, 0.0, 2.0], [0.0, 6.0, 0.0]]}, {"children_left": [1, 2, 3, 4, -1, -1, -1, 8, -1, 10, -1, -1, -1], "children_right": [12, 7, 6, 5, -1, -1, -1, 9, -1, 11, -1, -1, -1], "threshold": [1.0809673070907593, 0.49580876529216766, 0.1415070742368698, 0.033061099238693714, -2.0, -2.0, -2.0, 0.01825918536633253, -2.0, 9.846659660339355, -2.0, -2.0, -2.0], "feature": [5, 9, 9, 2, -2, -2, -2, 10, -2, 0, -2, -2, -2], "classes": [0, 1, 2], "value": [[17.0, 2.0, 8.0], [17.0, 0.0, 8.0], [13.0, 0.0, 3.0], [4.0, 0.0, 3.0], [4.0, 0.0, 0.0], [0.0, 0.0, 3.0], [9.0, 0.0, 0.0], [4.0, 0.0, 5.0], [0.0, 0.0, 4.0], [4.0, 0.0, 1.0], [4.0, 0.0, 0.0], [0.0, 0.0, 1.0], [0.0, 2.0, 0.0]]}, {"children_left": [1, -1, 3, -1, 5, 6, 7, 8, -1, -1, -1, -1, -1], "children_right": [2, -1, 4, -1, 12, 11, 10, 9, -1, -1, -1, -1, -1], "threshold": [0.14284482598304749, -2.0, 0.014299506787210703, -2.0, 0.39386965334415436, 10.704058647155762, 0.03644021414220333, 0.14467797055840492, -2.0, -2.0, -2.0, -2.0, -2.0], "feature": [9, -2, 10, -2, 10, 0, 10, 4, -2, -2, -2, -2, -2], "classes": [0, 1, 2], "value": [[14.0, 1.0, 12.0], [0.0, 0.0, 7.0], [14.0, 1.0, 5.0], [0.0, 0.0, 2.0], [14.0, 1.0, 3.0], [14.0, 0.0, 3.0], [14.0, 0.0, 2.0], [6.0, 0.0, 2.0], [6.0, 0.0, 0.0], [0.0, 0.0, 2.0], [8.0, 0.0, 0.0], [0.0, 0.0, 1.0], [0.0, 1.0, 0.0]]}, {"children_left": [1, 2, -1, 4, 5, -1, -1, -1, 9, -1, -1], "children_right": [8, 3, -1, 7, 6, -1, -1, -1, 10, -1, -1], "threshold": [0.3381682485342026, 0.015752405393868685, -2.0, 0.33173567801713943, 9.88158655166626, -2.0, -2.0, -2.0, 0.1417148932814598, -2.0, -2.0], "feature": [8, 2, -2, 9, 0, -2, -2, -2, 6, -2, -2], "classes": [0, 1, 2], "value": [[7.0, 5.0, 15.0], [4.0, 0.0, 15.0], [2.0, 0.0, 0.0], [2.0, 0.0, 15.0], [2.0, 0.0, 5.0], [2.0, 0.0, 0.0], [0.0, 0.0, 5.0], [0.0, 0.0, 10.0], [3.0, 5.0, 0.0], [3.0, 0.0, 0.0], [0.0, 5.0, 0.0]]}, {"children_left": [1, 2, 3, -1, -1, 6, -1, -1, -1], "children_right": [8, 5, 4, -1, -1, 7, -1, -1, -1], "threshold": [0.39701367914676666, 9.990125179290771, 0.03553940821439028, -2.0, -2.0, 0.04160032421350479, -2.0, -2.0, -2.0], "feature": [4, 0, 7, -2, -2, 10, -2, -2, -2], "classes": [0, 1, 2], "value": [[13.0, 6.0, 8.0], [13.0, 0.0, 8.0], [8.0, 0.0, 1.0], [0.0, 0.0, 1.0], [8.0, 0.0, 0.0], [5.0, 0.0, 7.0], [0.0, 0.0, 7.0], [5.0, 0.0, 0.0], [0.0, 6.0, 0.0]]}, {"children_left": [1, -1, 3, 4, -1, -1, 7, 8, -1, -1, -1], "children_right": [2, -1, 6, 5, -1, -1, 10, 9, -1, -1, -1], "threshold": [0.02082448173314333, -2.0, 0.3010847717523575, 0.05063372943550348, -2.0, -2.0, 0.9989342093467712, 13.126224040985107, -2.0, -2.0, -2.0], "feature": [6, -2, 4, 3, -2, -2, 8, 1, -2, -2, -2], "classes": [0, 1, 2], "value": [[11.0, 5.0, 11.0], [8.0, 0.0, 0.0], [3.0, 5.0, 11.0], [1.0, 0.0, 11.0], [1.0, 0.0, 0.0], [0.0, 0.0, 11.0], [2.0, 5.0, 0.0], [2.0, 1.0, 0.0], [2.0, 0.0, 0.0], [0.0, 1.0, 0.0], [0.0, 4.0, 0.0]]}, {"children_left": [1, 2, 3, 4, -1, -1, 7, -1, 9, -1, -1, -1, -1], "children_right": [12, 11, 6, 5, -1, -1, 8, -1, 10, -1, -1, -1, -1], "threshold": [0.16376100480556488, 1.2495399713516235, 0.04078558646142483, 0.061142414808273315, -2.0, -2.0, 0.14858313649892807, -2.0, 0.17841265350580215, -2.0, -2.0, -2.0, -2.0], "feature": [10, 3, 7, 8, -2, -2, 7, -2, 8, -2, -2, -2, -2], "classes": [0, 1, 2], "value": [[13.0, 6.0, 8.0], [13.0, 0.0, 8.0], [13.0, 0.0, 3.0], [1.0, 0.0, 2.0], [1.0, 0.0, 0.0], [0.0, 0.0, 2.0], [12.0, 0.0, 1.0], [9.0, 0.0, 0.0], [3.0, 0.0, 1.0], [0.0, 0.0, 1.0], [3.0, 0.0, 0.0], [0.0, 0.0, 5.0], [0.0, 6.0, 0.0]]}, {"children_left": [1, -1, 3, 4, -1, -1, 7, -1, 9, -1, -1], "children_right": [2, -1, 6, 5, -1, -1, 8, -1, 10, -1, -1], "threshold": [0.3189081847667694, -2.0, 0.11332309246063232, 9.873437881469727, -2.0, -2.0, 0.17569656670093536, -2.0, 0.9783523678779602, -2.0, -2.0], "feature": [3, -2, 10, 0, -2, -2, 7, -2, 9, -2, -2], "classes": [0, 1, 2], "value": [[9.0, 7.0, 11.0], [0.0, 0.0, 9.0], [9.0, 7.0, 2.0], [8.0, 0.0, 2.0], [8.0, 0.0, 0.0], [0.0, 0.0, 2.0], [1.0, 7.0, 0.0], [0.0, 5.0, 0.0], [1.0, 2.0, 0.0], [1.0, 0.0, 0.0], [0.0, 2.0, 0.0]]}, {"children_left": [1, 2, -1, 4, -1, 6, -1, -1, 9, -1, 11, -1, 13, -1, -1], "children_right": [8, 3, -1, 5, -1, 7, -1, -1, 10, -1, 12, -1, 14, -1, -1], "threshold": [0.04279961995780468, 0.04078558646142483, -2.0, 0.13776083663105965, -2.0, 0.01806812174618244, -2.0, -2.0, 0.05093315802514553, -2.0, 1.0129166394472122, -2.0, 0.4868902415037155, -2.0, -2.0], "feature": [10, 7, -2, 11, -2, 6, -2, -2, 2, -2, 3, -2, 10, -2, -2], "classes": [0, 1, 2], "value": [[13.0, 4.0, 10.0], [5.0, 0.0, 10.0], [0.0, 0.0, 5.0], [5.0, 0.0, 5.0], [4.0, 0.0, 0.0], [1.0, 0.0, 5.0], [1.0, 0.0, 0.0], [0.0, 0.0, 5.0], [8.0, 4.0, 0.0], [7.0, 0.0, 0.0], [1.0, 4.0, 0.0], [0.0, 3.0, 0.0], [1.0, 1.0, 0.0], [1.0, 0.0, 0.0], [0.0, 1.0, 0.0]]}, {"children_left": [1, 2, 3, -1, -1, -1, 7, 8, -1, -1, -1], "children_right": [6, 5, 4, -1, -1, -1, 10, 9, -1, -1, -1], "threshold": [0.30726347863674164, 0.040072448551654816, 0.15788302943110466, -2.0, -2.0, -2.0, 0.7319960594177246, 0.3905395567417145, -2.0, -2.0, -2.0], "feature": [8, 2, 4, -2, -2, -2, 4, 8, -2, -2, -2], "classes": [0, 1, 2], "value": [[9.0, 6.0, 12.0], [5.0, 0.0, 12.0], [5.0, 0.0, 3.0], [5.0, 0.0, 0.0], [0.0, 0.0, 3.0], [0.0, 0.0, 9.0], [4.0, 6.0, 0.0], [4.0, 2.0, 0.0], [0.0, 2.0, 0.0], [4.0, 0.0, 0.0], [0.0, 4.0, 0.0]]}, {"children_left": [1, -1, 3, 4, 5, -1, -1, -1, 9, -1, -1], "children_right": [2, -1, 8, 7, 6, -1, -1, -1, 10, -1, -1], "threshold": [9.873437881469727, -2.0, 0.34556688368320465, 0.09757949411869049, 0.04725217632949352, -2.0, -2.0, -2.0, 0.743071049451828, -2.0, -2.0], "feature": [0, -2, 8, 4, 11, -2, -2, -2, 8, -2, -2], "classes": [0, 1, 2], "value": [[12.0, 4.0, 11.0], [9.0, 0.0, 0.0], [3.0, 4.0, 11.0], [1.0, 0.0, 11.0], [1.0, 0.0, 4.0], [0.0, 0.0, 4.0], [1.0, 0.0, 0.0], [0.0, 0.0, 7.0], [2.0, 4.0, 0.0], [2.0, 0.0, 0.0], [0.0, 4.0, 0.0]]}, {"children_left": [1, 2, -1, 4, 5, -1, -1, -1, -1], "children_right": [8, 3, -1, 7, 6, -1, -1, -1, -1], "threshold": [0.16376100480556488, 0.14203184098005295, -2.0, 10.704058647155762, 0.010848118690773845, -2.0, -2.0, -2.0, -2.0], "feature": [10, 9, -2, 0, 10, -2, -2, -2, -2], "classes": [0, 1, 2], "value": [[9.0, 9.0, 9.0], [9.0, 0.0, 9.0], [0.0, 0.0, 7.0], [9.0, 0.0, 2.0], [9.0, 0.0, 1.0], [0.0, 0.0, 1.0], [9.0, 0.0, 0.0], [0.0, 0.0, 1.0], [0.0, 9.0, 0.0]]}, {"children_left": [1, 2, 3, 4, -1, -1, -1, 8, 9, 10, -1, -1, -1, 14, -1, -1, -1], "children_right": [16, 7, 6, 5, -1, -1, -1, 13, 12, 11, -1, -1, -1, 15, -1, -1, -1], "threshold": [0.38149067759513855, 9.873437881469727, 10.732795715332031, 0.022911095060408115, -2.0, -2.0, -2.0, 0.34556688368320465, 11.668021202087402, 0.04725217632949352, -2.0, -2.0, -2.0, 1.5547797083854675, -2.0, -2.0, -2.0], "feature": [6, 0, 1, 6, -2, -2, -2, 8, 1, 7, -2, -2, -2, 5, -2, -2, -2], "classes": [0, 1, 2], "value": [[13.0, 7.0, 7.0], [13.0, 1.0, 7.0], [8.0, 0.0, 1.0], [2.0, 0.0, 1.0], [2.0, 0.0, 0.0], [0.0, 0.0, 1.0], [6.0, 0.0, 0.0], [5.0, 1.0, 6.0], [3.0, 0.0, 6.0], [3.0, 0.0, 2.0], [0.0, 0.0, 2.0], [3.0, 0.0, 0.0], [0.0, 0.0, 4.0], [2.0, 1.0, 0.0], [2.0, 0.0, 0.0], [0.0, 1.0, 0.0], [0.0, 6.0, 0.0]]}, {"children_left": [1, 2, -1, -1, 5, 6, -1, 8, -1, -1, 11, 12, -1, -1, -1], "children_right": [4, 3, -1, -1, 10, 7, -1, 9, -1, -1, 14, 13, -1, -1, -1], "threshold": [0.03987439535558224, 0.035532415844500065, -2.0, -2.0, 0.05093315802514553, 0.19331355392932892, -2.0, 0.34556688368320465, -2.0, -2.0, 1.0307385921478271, 9.843636989593506, -2.0, -2.0, -2.0], "feature": [7, 6, -2, -2, 6, 11, -2, 8, -2, -2, 5, 0, -2, -2, -2], "classes": [0, 1, 2], "value": [[17.0, 4.0, 6.0], [1.0, 0.0, 5.0], [1.0, 0.0, 0.0], [0.0, 0.0, 5.0], [16.0, 4.0, 1.0], [12.0, 0.0, 1.0], [11.0, 0.0, 0.0], [1.0, 0.0, 1.0], [0.0, 0.0, 1.0], [1.0, 0.0, 0.0], [4.0, 4.0, 0.0], [1.0, 4.0, 0.0], [1.0, 0.0, 0.0], [0.0, 4.0, 0.0], [3.0, 0.0, 0.0]]}, {"children_left": [1, 2, 3, -1, -1, 6, -1, 8, -1, -1, 11, -1, -1], "children_right": [10, 5, 4, -1, -1, 7, -1, 9, -1, -1, 12, -1, -1], "threshold": [10.316266059875488, 0.14203184098005295, 0.04279961995780468, -2.0, -2.0, 0.9075681865215302, -2.0, 9.956769466400146, -2.0, -2.0, 0.27726307325065136, -2.0, -2.0], "feature": [0, 9, 10, -2, -2, 5, -2, 0, -2, -2, 2, -2, -2], "classes": [0, 1, 2], "value": [[14.0, 3.0, 10.0], [14.0, 0.0, 5.0], [2.0, 0.0, 3.0], [0.0, 0.0, 3.0], [2.0, 0.0, 0.0], [12.0, 0.0, 2.0], [11.0, 0.0, 0.0], [1.0, 0.0, 2.0], [1.0, 0.0, 0.0], [0.0, 0.0, 2.0], [0.0, 3.0, 5.0], [0.0, 0.0, 5.0], [0.0, 3.0, 0.0]]}, {"children_left": [1, 2, 3, -1, 5, -1, -1, 8, -1, -1, 11, -1, 13, 14, -1, -1, -1], "children_right": [10, 7, 4, -1, 6, -1, -1, 9, -1, -1, 12, -1, 16, 15, -1, -1, -1], "threshold": [0.3146621137857437, 9.873437881469727, 0.03553940821439028, -2.0, 0.8424579799175262, -2.0, -2.0, 0.01671128859743476, -2.0, -2.0, 9.509393692016602, -2.0, 10.272993087768555, 0.6821417212486267, -2.0, -2.0, -2.0], "feature": [8, 0, 11, -2, 9, -2, -2, 2, -2, -2, 0, -2, 0, 9, -2, -2, -2], "classes": [0, 1, 2], "value": [[9.0, 7.0, 11.0], [7.0, 0.0, 11.0], [6.0, 0.0, 2.0], [0.0, 0.0, 1.0], [6.0, 0.0, 1.0], [6.0, 0.0, 0.0], [0.0, 0.0, 1.0], [1.0, 0.0, 9.0], [1.0, 0.0, 0.0], [0.0, 0.0, 9.0], [2.0, 7.0, 0.0], [1.0, 0.0, 0.0], [1.0, 7.0, 0.0], [1.0, 3.0, 0.0], [0.0, 3.0, 0.0], [1.0, 0.0, 0.0], [0.0, 4.0, 0.0]]}, {"children_left": [1, 2, 3, -1, -1, -1, 7, -1, 9, -1, -1], "children_right": [6, 5, 4, -1, -1, -1, 8, -1, 10, -1, -1], "threshold": [0.3146621137857437, 0.19331355392932892, 0.04078558646142483, -2.0, -2.0, -2.0, 1.2318509817123413, -2.0, 11.267334938049316, -2.0, -2.0], "feature": [8, 7, 7, -2, -2, -2, 9, -2, 0, -2, -2], "classes": [0, 1, 2], "value": [[11.0, 3.0, 13.0], [8.0, 0.0, 13.0], [8.0, 0.0, 5.0], [0.0, 0.0, 5.0], [8.0, 0.0, 0.0], [0.0, 0.0, 8.0], [3.0, 3.0, 0.0], [0.0, 2.0, 0.0], [3.0, 1.0, 0.0], [3.0, 0.0, 0.0], [0.0, 1.0, 0.0]]}, {"children_left": [1, -1, 3, 4, -1, -1, 7, -1, 9, -1, 11, -1, -1], "children_right": [2, -1, 6, 5, -1, -1, 8, -1, 10, -1, 12, -1, -1], "threshold": [0.14203184098005295, -2.0, 0.20502060651779175, 0.010848118690773845, -2.0, -2.0, 1.0778680443763733, -2.0, 0.398126557469368, -2.0, 1.1808462142944336, -2.0, -2.0], "feature": [9, -2, 7, 10, -2, -2, 9, -2, 11, -2, 3, -2, -2], "classes": [0, 1, 2], "value": [[11.0, 3.0, 13.0], [0.0, 0.0, 8.0], [11.0, 3.0, 5.0], [9.0, 0.0, 1.0], [0.0, 0.0, 1.0], [9.0, 0.0, 0.0], [2.0, 3.0, 4.0], [0.0, 0.0, 4.0], [2.0, 3.0, 0.0], [0.0, 2.0, 0.0], [2.0, 1.0, 0.0], [0.0, 1.0, 0.0], [2.0, 0.0, 0.0]]}, {"children_left": [1, 2, 3, 4, -1, 6, -1, -1, -1, -1, -1], "children_right": [10, 9, 8, 5, -1, 7, -1, -1, -1, -1, -1], "threshold": [0.39701367914676666, 0.8874884843826294, 0.04279961995780468, 0.01691737538203597, -2.0, 10.063533306121826, -2.0, -2.0, -2.0, -2.0, -2.0], "feature": [4, 5, 10, 10, -2, 0, -2, -2, -2, -2, -2], "classes": [0, 1, 2], "value": [[11.0, 7.0, 9.0], [11.0, 0.0, 9.0], [11.0, 0.0, 5.0], [5.0, 0.0, 5.0], [4.0, 0.0, 0.0], [1.0, 0.0, 5.0], [0.0, 0.0, 5.0], [1.0, 0.0, 0.0], [6.0, 0.0, 0.0], [0.0, 0.0, 4.0], [0.0, 7.0, 0.0]]}, {"children_left": [1, 2, 3, 4, 5, -1, -1, 8, -1, 10, -1, -1, -1, -1, -1], "children_right": [14, 13, 12, 7, 6, -1, -1, 9, -1, 11, -1, -1, -1, -1, -1], "threshold": [2.5466034412384033, 0.3523450493812561, 0.3381682485342026, 0.237904854118824, 0.033061099238693714, -2.0, -2.0, 10.8565354347229, -2.0, 11.823716163635254, -2.0, -2.0, -2.0, -2.0, -2.0], "feature": [3, 10, 8, 5, 2, -2, -2, 1, -2, 1, -2, -2, -2, -2, -2], "classes": [0, 1, 2], "value": [[11.0, 9.0, 7.0], [11.0, 4.0, 7.0], [11.0, 0.0, 7.0], [7.0, 0.0, 7.0], [5.0, 0.0, 1.0], [5.0, 0.0, 0.0], [0.0, 0.0, 1.0], [2.0, 0.0, 6.0], [0.0, 0.0, 4.0], [2.0, 0.0, 2.0], [2.0, 0.0, 0.0], [0.0, 0.0, 2.0], [4.0, 0.0, 0.0], [0.0, 4.0, 0.0], [0.0, 5.0, 0.0]]}, {"children_left": [1, 2, -1, 4, 5, 6, -1, 8, 9, -1, -1, -1, -1, -1, -1], "children_right": [14, 3, -1, 13, 12, 7, -1, 11, 10, -1, -1, -1, -1, -1, -1], "threshold": [11.267334938049316, 9.870415210723877, -2.0, 10.206446647644043, 0.05639680102467537, 0.02910948544740677, -2.0, 0.4278692752122879, 0.0979449525475502, -2.0, -2.0, -2.0, -2.0, -2.0, -2.0], "feature": [0, 0, -2, 0, 6, 11, -2, 9, 8, -2, -2, -2, -2, -2, -2], "classes": [0, 1, 2], "value": [[16.0, 3.0, 8.0], [16.0, 1.0, 8.0], [7.0, 0.0, 0.0], [9.0, 1.0, 8.0], [2.0, 1.0, 8.0], [2.0, 0.0, 8.0], [1.0, 0.0, 0.0], [1.0, 0.0, 8.0], [1.0, 0.0, 3.0], [0.0, 0.0, 3.0], [1.0, 0.0, 0.0], [0.0, 0.0, 5.0], [0.0, 1.0, 0.0], [7.0, 0.0, 0.0], [0.0, 2.0, 0.0]]}, {"children_left": [1, 2, 3, -1, 5, -1, -1, 8, 9, -1, 11, -1, -1, -1, -1], "children_right": [14, 7, 4, -1, 6, -1, -1, 13, 10, -1, 12, -1, -1, -1, -1], "threshold": [0.30276012420654297, 0.3249760866165161, 0.05063372943550348, -2.0, 0.023029203061014414, -2.0, -2.0, 10.704058647155762, 0.898293673992157, -2.0, 10.944930076599121, -2.0, -2.0, -2.0, -2.0], "feature": [10, 5, 3, -2, 6, -2, -2, 0, 5, -2, 1, -2, -2, -2, -2], "classes": [0, 1, 2], "value": [[16.0, 5.0, 6.0], [16.0, 0.0, 6.0], [2.0, 0.0, 4.0], [1.0, 0.0, 0.0], [1.0, 0.0, 4.0], [1.0, 0.0, 0.0], [0.0, 0.0, 4.0], [14.0, 0.0, 2.0], [14.0, 0.0, 1.0], [13.0, 0.0, 0.0], [1.0, 0.0, 1.0], [0.0, 0.0, 1.0], [1.0, 0.0, 0.0], [0.0, 0.0, 1.0], [0.0, 5.0, 0.0]]}, {"children_left": [1, 2, -1, 4, 5, 6, -1, -1, 9, 10, -1, -1, -1, 14, -1, -1, -1], "children_right": [16, 3, -1, 13, 8, 7, -1, -1, 12, 11, -1, -1, -1, 15, -1, -1, -1], "threshold": [0.2754972279071808, 0.01806812174618244, -2.0, 0.30834077298641205, 9.88158655166626, 9.654862880706787, -2.0, -2.0, 0.14858313649892807, 0.09110584296286106, -2.0, -2.0, -2.0, 0.9167797565460205, -2.0, -2.0, -2.0], "feature": [6, 2, -2, 4, 0, 0, -2, -2, 11, 7, -2, -2, -2, 5, -2, -2, -2], "classes": [0, 1, 2], "value": [[11.0, 4.0, 12.0], [11.0, 1.0, 12.0], [5.0, 0.0, 0.0], [6.0, 1.0, 12.0], [3.0, 0.0, 12.0], [2.0, 0.0, 2.0], [0.0, 0.0, 2.0], [2.0, 0.0, 0.0], [1.0, 0.0, 10.0], [1.0, 0.0, 3.0], [0.0, 0.0, 3.0], [1.0, 0.0, 0.0], [0.0, 0.0, 7.0], [3.0, 1.0, 0.0], [3.0, 0.0, 0.0], [0.0, 1.0, 0.0], [0.0, 3.0, 0.0]]}, {"children_left": [1, 2, -1, 4, -1, 6, 7, -1, 9, -1, -1, -1, -1], "children_right": [12, 3, -1, 5, -1, 11, 8, -1, 10, -1, -1, -1, -1], "threshold": [2.662661910057068, 0.04078558646142483, -2.0, 0.014299506787210703, -2.0, 14.677642822265625, 0.2451939657330513, -2.0, 0.03224394749850035, -2.0, -2.0, -2.0, -2.0], "feature": [3, 11, -2, 10, -2, 1, 7, -2, 10, -2, -2, -2, -2], "classes": [0, 1, 2], "value": [[17.0, 3.0, 7.0], [17.0, 0.0, 7.0], [0.0, 0.0, 4.0], [17.0, 0.0, 3.0], [0.0, 0.0, 1.0], [17.0, 0.0, 2.0], [17.0, 0.0, 1.0], [15.0, 0.0, 0.0], [2.0, 0.0, 1.0], [0.0, 0.0, 1.0], [2.0, 0.0, 0.0], [0.0, 0.0, 1.0], [0.0, 3.0, 0.0]]}, {"children_left": [1, 2, 3, 4, 5, -1, -1, -1, -1, 10, -1, -1, 13, -1, -1], "children_right": [12, 9, 8, 7, 6, -1, -1, -1, -1, 11, -1, -1, 14, -1, -1], "threshold": [0.39701367914676666, 0.040072448551654816, 0.24014806002378464, 0.37140096724033356, 10.019124984741211, -2.0, -2.0, -2.0, -2.0, 0.09451299346983433, -2.0, -2.0, 0.41892924904823303, -2.0, -2.0], "feature": [4, 2, 11, 3, 0, -2, -2, -2, -2, 10, -2, -2, 7, -2, -2], "classes": [0, 1, 2], "value": [[11.0, 5.0, 11.0], [10.0, 0.0, 11.0], [8.0, 0.0, 4.0], [8.0, 0.0, 2.0], [3.0, 0.0, 2.0], [0.0, 0.0, 2.0], [3.0, 0.0, 0.0], [5.0, 0.0, 0.0], [0.0, 0.0, 2.0], [2.0, 0.0, 7.0], [0.0, 0.0, 7.0], [2.0, 0.0, 0.0], [1.0, 5.0, 0.0], [0.0, 5.0, 0.0], [1.0, 0.0, 0.0]]}, {"children_left": [1, 2, 3, -1, -1, 6, -1, 8, -1, 10, -1, -1, -1], "children_right": [12, 5, 4, -1, -1, 7, -1, 9, -1, 11, -1, -1, -1], "threshold": [0.331206738948822, 0.020128514617681503, 0.022911095060408115, -2.0, -2.0, 10.208879947662354, -2.0, 0.39701367914676666, -2.0, 0.5365539938211441, -2.0, -2.0, -2.0], "feature": [10, 10, 6, -2, -2, 1, -2, 4, -2, 4, -2, -2, -2], "classes": [0, 1, 2], "value": [[15.0, 8.0, 4.0], [15.0, 1.0, 4.0], [1.0, 0.0, 3.0], [1.0, 0.0, 0.0], [0.0, 0.0, 3.0], [14.0, 1.0, 1.0], [0.0, 0.0, 1.0], [14.0, 1.0, 0.0], [12.0, 0.0, 0.0], [2.0, 1.0, 0.0], [0.0, 1.0, 0.0], [2.0, 0.0, 0.0], [0.0, 7.0, 0.0]]}, {"children_left": [1, 2, -1, 4, -1, 6, 7, -1, -1, -1, 11, -1, 13, -1, -1], "children_right": [10, 3, -1, 5, -1, 9, 8, -1, -1, -1, 12, -1, 14, -1, -1], "threshold": [0.11332309246063232, 9.41469669342041, -2.0, 0.017768749967217445, -2.0, 0.07497849315404892, 0.020876063033938408, -2.0, -2.0, -2.0, 0.398126557469368, -2.0, 0.6644895374774933, -2.0, -2.0], "feature": [10, 0, -2, 2, -2, 8, 10, -2, -2, -2, 7, -2, 7, -2, -2], "classes": [0, 1, 2], "value": [[9.0, 8.0, 10.0], [8.0, 0.0, 10.0], [3.0, 0.0, 0.0], [5.0, 0.0, 10.0], [2.0, 0.0, 0.0], [3.0, 0.0, 10.0], [3.0, 0.0, 1.0], [0.0, 0.0, 1.0], [3.0, 0.0, 0.0], [0.0, 0.0, 9.0], [1.0, 8.0, 0.0], [0.0, 7.0, 0.0], [1.0, 1.0, 0.0], [1.0, 0.0, 0.0], [0.0, 1.0, 0.0]]}, {"children_left": [1, 2, 3, -1, -1, 6, -1, 8, -1, 10, -1, -1, -1], "children_right": [12, 5, 4, -1, -1, 7, -1, 9, -1, 11, -1, -1, -1], "threshold": [0.38149067759513855, 0.1415070742368698, 0.061761440709233284, -2.0, -2.0, 0.010848118690773845, -2.0, 0.39701367914676666, -2.0, 10.947632312774658, -2.0, -2.0, -2.0], "feature": [6, 9, 5, -2, -2, 10, -2, 4, -2, 1, -2, -2, -2], "classes": [0, 1, 2], "value": [[16.0, 6.0, 5.0], [16.0, 1.0, 5.0], [1.0, 0.0, 4.0], [1.0, 0.0, 0.0], [0.0, 0.0, 4.0], [15.0, 1.0, 1.0], [0.0, 0.0, 1.0], [15.0, 1.0, 0.0], [13.0, 0.0, 0.0], [2.0, 1.0, 0.0], [0.0, 1.0, 0.0], [2.0, 0.0, 0.0], [0.0, 5.0, 0.0]]}, {"children_left": [1, 2, 3, 4, -1, 6, -1, -1, -1, 10, -1, -1, 13, -1, -1], "children_right": [12, 9, 8, 5, -1, 7, -1, -1, -1, 11, -1, -1, 14, -1, -1], "threshold": [0.1417148932814598, 10.732795715332031, 0.2748350650072098, 0.05063372943550348, -2.0, 0.019467648584395647, -2.0, -2.0, -2.0, 0.04407508112490177, -2.0, -2.0, 9.710655212402344, -2.0, -2.0], "feature": [2, 1, 4, 3, -2, 2, -2, -2, -2, 10, -2, -2, 0, -2, -2], "classes": [0, 1, 2], "value": [[10.0, 7.0, 10.0], [8.0, 1.0, 10.0], [3.0, 1.0, 9.0], [3.0, 0.0, 9.0], [1.0, 0.0, 0.0], [2.0, 0.0, 9.0], [2.0, 0.0, 0.0], [0.0, 0.0, 9.0], [0.0, 1.0, 0.0], [5.0, 0.0, 1.0], [0.0, 0.0, 1.0], [5.0, 0.0, 0.0], [2.0, 6.0, 0.0], [2.0, 0.0, 0.0], [0.0, 6.0, 0.0]]}, {"children_left": [1, 2, 3, -1, -1, 6, -1, 8, -1, 10, -1, -1, 13, 14, -1, -1, -1], "children_right": [12, 5, 4, -1, -1, 7, -1, 9, -1, 11, -1, -1, 16, 15, -1, -1, -1], "threshold": [0.16376100480556488, 0.07497849315404892, 0.02832517959177494, -2.0, -2.0, 0.01671128859743476, -2.0, 0.721248209476471, -2.0, 0.5674491971731186, -2.0, -2.0, 1.620051920413971, 0.7250830233097076, -2.0, -2.0, -2.0], "feature": [10, 8, 7, -2, -2, 6, -2, 5, -2, 7, -2, -2, 9, 5, -2, -2, -2], "classes": [0, 1, 2], "value": [[9.0, 7.0, 11.0], [6.0, 0.0, 11.0], [3.0, 0.0, 1.0], [0.0, 0.0, 1.0], [3.0, 0.0, 0.0], [3.0, 0.0, 10.0], [2.0, 0.0, 0.0], [1.0, 0.0, 10.0], [0.0, 0.0, 8.0], [1.0, 0.0, 2.0], [0.0, 0.0, 2.0], [1.0, 0.0, 0.0], [3.0, 7.0, 0.0], [1.0, 7.0, 0.0], [1.0, 0.0, 0.0], [0.0, 7.0, 0.0], [2.0, 0.0, 0.0]]}, {"children_left": [1, 2, 3, -1, -1, 6, -1, -1, -1], "children_right": [8, 5, 4, -1, -1, 7, -1, -1, -1], "threshold": [0.9918632805347443, 0.19835945963859558, 0.02832517959177494, -2.0, -2.0, 0.34070365130901337, -2.0, -2.0, -2.0], "feature": [5, 7, 11, -2, -2, 4, -2, -2, -2], "classes": [0, 1, 2], "value": [[12.0, 5.0, 10.0], [12.0, 0.0, 10.0], [11.0, 0.0, 2.0], [0.0, 0.0, 2.0], [11.0, 0.0, 0.0], [1.0, 0.0, 8.0], [0.0, 0.0, 8.0], [1.0, 0.0, 0.0], [0.0, 5.0, 0.0]]}, {"children_left": [1, 2, 3, -1, -1, 6, -1, 8, -1, 10, -1, -1, -1], "children_right": [12, 5, 4, -1, -1, 7, -1, 9, -1, 11, -1, -1, -1], "threshold": [1.0778680443763733, 0.04919590801000595, 0.033061099238693714, -2.0, -2.0, 0.49580876529216766, -2.0, 10.96141004562378, -2.0, 0.21492446959018707, -2.0, -2.0, -2.0], "feature": [9, 7, 6, -2, -2, 9, -2, 1, -2, 4, -2, -2, -2], "classes": [0, 1, 2], "value": [[11.0, 4.0, 12.0], [11.0, 0.0, 12.0], [1.0, 0.0, 8.0], [1.0, 0.0, 0.0], [0.0, 0.0, 8.0], [10.0, 0.0, 4.0], [6.0, 0.0, 0.0], [4.0, 0.0, 4.0], [0.0, 0.0, 2.0], [4.0, 0.0, 2.0], [0.0, 0.0, 2.0], [4.0, 0.0, 0.0], [0.0, 4.0, 0.0]]}, {"children_left": [1, 2, 3, -1, -1, -1, 7, 8, -1, 10, -1, 12, -1, -1, 15, -1, -1], "children_right": [6, 5, 4, -1, -1, -1, 14, 9, -1, 11, -1, 13, -1, -1, 16, -1, -1], "threshold": [0.3695625215768814, 0.25179246068000793, 0.017560269683599472, -2.0, -2.0, -2.0, 0.16376100480556488, 0.02064148336648941, -2.0, 0.14255506172776222, -2.0, 0.21492446959018707, -2.0, -2.0, 0.36465080082416534, -2.0, -2.0], "feature": [3, 3, 7, -2, -2, -2, 10, 10, -2, 4, -2, 4, -2, -2, 4, -2, -2], "classes": [0, 1, 2], "value": [[14.0, 3.0, 10.0], [3.0, 0.0, 7.0], [3.0, 0.0, 1.0], [0.0, 0.0, 1.0], [3.0, 0.0, 0.0], [0.0, 0.0, 6.0], [11.0, 3.0, 3.0], [10.0, 0.0, 3.0], [0.0, 0.0, 1.0], [10.0, 0.0, 2.0], [5.0, 0.0, 0.0], [5.0, 0.0, 2.0], [0.0, 0.0, 2.0], [5.0, 0.0, 0.0], [1.0, 3.0, 0.0], [1.0, 0.0, 0.0], [0.0, 3.0, 0.0]]}, {"children_left": [1, 2, 3, 4, -1, -1, -1, -1, -1], "children_right": [8, 7, 6, 5, -1, -1, -1, -1, -1], "threshold": [0.3876277059316635, 10.8565354347229, 0.11760189011693001, 0.037291789427399635, -2.0, -2.0, -2.0, -2.0, -2.0], "feature": [4, 1, 4, 2, -2, -2, -2, -2, -2], "classes": [0, 1, 2], "value": [[12.0, 7.0, 8.0], [12.0, 0.0, 8.0], [6.0, 0.0, 8.0], [6.0, 0.0, 3.0], [6.0, 0.0, 0.0], [0.0, 0.0, 3.0], [0.0, 0.0, 5.0], [6.0, 0.0, 0.0], [0.0, 7.0, 0.0]]}, {"children_left": [1, 2, 3, -1, -1, 6, -1, -1, -1], "children_right": [8, 5, 4, -1, -1, 7, -1, -1, -1], "threshold": [0.16376100480556488, 0.14858313649892807, 0.0415105726569891, -2.0, -2.0, 0.09451299346983433, -2.0, -2.0, -2.0], "feature": [10, 11, 2, -2, -2, 10, -2, -2, -2], "classes": [0, 1, 2], "value": [[11.0, 4.0, 12.0], [11.0, 0.0, 12.0], [10.0, 0.0, 5.0], [10.0, 0.0, 0.0], [0.0, 0.0, 5.0], [1.0, 0.0, 7.0], [0.0, 0.0, 7.0], [1.0, 0.0, 0.0], [0.0, 4.0, 0.0]]}, {"children_left": [1, 2, -1, 4, 5, -1, 7, -1, 9, -1, -1, -1, -1], "children_right": [12, 3, -1, 11, 6, -1, 8, -1, 10, -1, -1, -1, -1], "threshold": [0.9918632805347443, 9.823033332824707, -2.0, 1.2290506958961487, 0.05063372943550348, -2.0, 0.0979449525475502, -2.0, 0.4278692752122879, -2.0, -2.0, -2.0, -2.0], "feature": [5, 0, -2, 9, 3, -2, 8, -2, 9, -2, -2, -2, -2], "classes": [0, 1, 2], "value": [[12.0, 7.0, 8.0], [12.0, 0.0, 8.0], [5.0, 0.0, 0.0], [7.0, 0.0, 8.0], [4.0, 0.0, 8.0], [3.0, 0.0, 0.0], [1.0, 0.0, 8.0], [0.0, 0.0, 4.0], [1.0, 0.0, 4.0], [1.0, 0.0, 0.0], [0.0, 0.0, 4.0], [3.0, 0.0, 0.0], [0.0, 7.0, 0.0]]}, {"children_left": [1, 2, 3, 4, -1, -1, 7, 8, -1, -1, -1, 12, -1, -1, -1], "children_right": [14, 11, 6, 5, -1, -1, 10, 9, -1, -1, -1, 13, -1, -1, -1], "threshold": [0.41999058425426483, 0.20502060651779175, 0.1415070742368698, 0.04279961995780468, -2.0, -2.0, 0.025723124854266644, 0.6388256400823593, -2.0, -2.0, -2.0, 1.5884344577789307, -2.0, -2.0, -2.0], "feature": [4, 7, 9, 10, -2, -2, 2, 5, -2, -2, -2, 9, -2, -2, -2], "classes": [0, 1, 2], "value": [[15.0, 5.0, 7.0], [15.0, 0.0, 7.0], [14.0, 0.0, 3.0], [1.0, 0.0, 2.0], [0.0, 0.0, 2.0], [1.0, 0.0, 0.0], [13.0, 0.0, 1.0], [4.0, 0.0, 1.0], [4.0, 0.0, 0.0], [0.0, 0.0, 1.0], [9.0, 0.0, 0.0], [1.0, 0.0, 4.0], [0.0, 0.0, 4.0], [1.0, 0.0, 0.0], [0.0, 5.0, 0.0]]}, {"children_left": [1, 2, 3, -1, -1, 6, 7, -1, -1, -1, -1], "children_right": [10, 5, 4, -1, -1, 9, 8, -1, -1, -1, -1], "threshold": [0.1417148932814598, 0.13992735743522644, 0.0485551655292511, -2.0, -2.0, 0.39701367914676666, 2.178464412689209, -2.0, -2.0, -2.0, -2.0], "feature": [2, 3, 4, -2, -2, 4, 3, -2, -2, -2, -2], "classes": [0, 1, 2], "value": [[13.0, 8.0, 6.0], [13.0, 1.0, 6.0], [1.0, 0.0, 5.0], [1.0, 0.0, 0.0], [0.0, 0.0, 5.0], [12.0, 1.0, 1.0], [12.0, 0.0, 1.0], [12.0, 0.0, 0.0], [0.0, 0.0, 1.0], [0.0, 1.0, 0.0], [0.0, 7.0, 0.0]]}, {"children_left": [1, 2, -1, 4, -1, -1, 7, -1, 9, -1, -1], "children_right": [6, 3, -1, 5, -1, -1, 8, -1, 10, -1, -1], "threshold": [0.0415105726569891, 0.25788460671901703, -2.0, 0.5859188735485077, -2.0, -2.0, 0.3625294789671898, -2.0, 0.39701367914676666, -2.0, -2.0], "feature": [2, 8, -2, 5, -2, -2, 9, -2, 4, -2, -2], "classes": [0, 1, 2], "value": [[16.0, 4.0, 7.0], [15.0, 0.0, 2.0], [13.0, 0.0, 0.0], [2.0, 0.0, 2.0], [0.0, 0.0, 2.0], [2.0, 0.0, 0.0], [1.0, 4.0, 5.0], [0.0, 0.0, 5.0], [1.0, 4.0, 0.0], [1.0, 0.0, 0.0], [0.0, 4.0, 0.0]]}, {"children_left": [1, 2, -1, 4, 5, -1, -1, -1, 9, -1, -1], "children_right": [8, 3, -1, 7, 6, -1, -1, -1, 10, -1, -1], "threshold": [0.9918632805347443, 0.6607604324817657, -2.0, 0.34556688368320465, 0.6429900527000427, -2.0, -2.0, -2.0, 0.41892924904823303, -2.0, -2.0], "feature": [5, 3, -2, 8, 9, -2, -2, -2, 11, -2, -2], "classes": [0, 1, 2], "value": [[13.0, 7.0, 7.0], [11.0, 0.0, 7.0], [6.0, 0.0, 0.0], [5.0, 0.0, 7.0], [1.0, 0.0, 7.0], [1.0, 0.0, 0.0], [0.0, 0.0, 7.0], [4.0, 0.0, 0.0], [2.0, 7.0, 0.0], [0.0, 7.0, 0.0], [2.0, 0.0, 0.0]]}, {"children_left": [1, 2, -1, -1, 5, 6, -1, 8, 9, 10, -1, 12, -1, -1, -1, -1, -1], "children_right": [4, 3, -1, -1, 16, 7, -1, 15, 14, 11, -1, 13, -1, -1, -1, -1, -1], "threshold": [0.04078558646142483, 0.05063372943550348, -2.0, -2.0, 0.3523450493812561, 0.014299506787210703, -2.0, 2.178464412689209, 9.925515174865723, 9.870415210723877, -2.0, 0.8210043460130692, -2.0, -2.0, -2.0, -2.0, -2.0], "feature": [11, 3, -2, -2, 10, 10, -2, 3, 0, 0, -2, 3, -2, -2, -2, -2, -2], "classes": [0, 1, 2], "value": [[13.0, 4.0, 10.0], [1.0, 0.0, 7.0], [1.0, 0.0, 0.0], [0.0, 0.0, 7.0], [12.0, 4.0, 3.0], [12.0, 1.0, 3.0], [0.0, 0.0, 1.0], [12.0, 1.0, 2.0], [12.0, 1.0, 1.0], [5.0, 1.0, 1.0], [5.0, 0.0, 0.0], [0.0, 1.0, 1.0], [0.0, 1.0, 0.0], [0.0, 0.0, 1.0], [7.0, 0.0, 0.0], [0.0, 0.0, 1.0], [0.0, 3.0, 0.0]]}, {"children_left": [1, 2, 3, 4, 5, 6, -1, -1, -1, 10, -1, -1, 13, -1, -1, -1, -1], "children_right": [16, 15, 12, 9, 8, 7, -1, -1, -1, 11, -1, -1, 14, -1, -1, -1, -1], "threshold": [0.7319960594177246, 0.9718465209007263, 0.19835945963859558, 0.14284482598304749, 0.061142414808273315, 0.05397920683026314, -2.0, -2.0, -2.0, 0.6957917511463165, -2.0, -2.0, 0.36609092354774475, -2.0, -2.0, -2.0, -2.0], "feature": [4, 5, 11, 9, 8, 4, -2, -2, -2, 5, -2, -2, 4, -2, -2, -2, -2], "classes": [0, 1, 2], "value": [[11.0, 6.0, 10.0], [11.0, 1.0, 10.0], [7.0, 1.0, 10.0], [7.0, 0.0, 5.0], [2.0, 0.0, 4.0], [2.0, 0.0, 1.0], [2.0, 0.0, 0.0], [0.0, 0.0, 1.0], [0.0, 0.0, 3.0], [5.0, 0.0, 1.0], [5.0, 0.0, 0.0], [0.0, 0.0, 1.0], [0.0, 1.0, 5.0], [0.0, 0.0, 5.0], [0.0, 1.0, 0.0], [4.0, 0.0, 0.0], [0.0, 5.0, 0.0]]}, {"children_left": [1, 2, -1, 4, -1, 6, -1, -1, 9, 10, -1, -1, -1], "children_right": [8, 3, -1, 5, -1, 7, -1, -1, 12, 11, -1, -1, -1], "threshold": [0.39701367914676666, 0.04078558646142483, -2.0, 0.14858313649892807, -2.0, 0.09451299346983433, -2.0, -2.0, 12.160515785217285, 0.204815236851573, -2.0, -2.0, -2.0], "feature": [4, 7, -2, 11, -2, 10, -2, -2, 1, 2, -2, -2, -2], "classes": [0, 1, 2], "value": [[12.0, 7.0, 8.0], [10.0, 0.0, 8.0], [0.0, 0.0, 3.0], [10.0, 0.0, 5.0], [8.0, 0.0, 0.0], [2.0, 0.0, 5.0], [0.0, 0.0, 5.0], [2.0, 0.0, 0.0], [2.0, 7.0, 0.0], [2.0, 1.0, 0.0], [0.0, 1.0, 0.0], [2.0, 0.0, 0.0], [0.0, 6.0, 0.0]]}, {"children_left": [1, 2, 3, -1, 5, -1, -1, -1, 9, -1, -1], "children_right": [8, 7, 4, -1, 6, -1, -1, -1, 10, -1, -1], "threshold": [0.09928990714251995, 0.040072448551654816, 0.07497849315404892, -2.0, 0.03644021414220333, -2.0, -2.0, -2.0, 10.2232027053833, -2.0, -2.0], "feature": [2, 6, 8, -2, 10, -2, -2, -2, 0, -2, -2], "classes": [0, 1, 2], "value": [[9.0, 10.0, 8.0], [8.0, 0.0, 8.0], [8.0, 0.0, 4.0], [4.0, 0.0, 0.0], [4.0, 0.0, 4.0], [0.0, 0.0, 4.0], [4.0, 0.0, 0.0], [0.0, 0.0, 4.0], [1.0, 10.0, 0.0], [1.0, 0.0, 0.0], [0.0, 10.0, 0.0]]}, {"children_left": [1, 2, -1, 4, -1, 6, 7, -1, 9, -1, -1, -1, -1], "children_right": [12, 3, -1, 5, -1, 11, 8, -1, 10, -1, -1, -1, -1], "threshold": [2.5466034412384033, 0.01806812174618244, -2.0, 0.07497849315404892, -2.0, 0.5674491971731186, 0.04407701827585697, -2.0, 0.05093315802514553, -2.0, -2.0, -2.0, -2.0], "feature": [3, 6, -2, 8, -2, 11, 10, -2, 6, -2, -2, -2, -2], "classes": [0, 1, 2], "value": [[13.0, 7.0, 7.0], [13.0, 1.0, 7.0], [6.0, 0.0, 0.0], [7.0, 1.0, 7.0], [3.0, 0.0, 0.0], [4.0, 1.0, 7.0], [2.0, 1.0, 7.0], [0.0, 0.0, 7.0], [2.0, 1.0, 0.0], [2.0, 0.0, 0.0], [0.0, 1.0, 0.0], [2.0, 0.0, 0.0], [0.0, 6.0, 0.0]]}]}